{"learner":{"attributes":{"scikit_learn":"{\"_estimator_type\": \"classifier\"}"},"feature_names":[],"feature_types":[],"gradient_booster":{"model":{"cats":{"enc":[],"feature_segments":[],"sorted_idx":[]},"gbtree_model_param":{"num_parallel_tree":"1","num_trees":"633"},"iteration_indptr":[0,3,6,9,12,15,18,21,24,27,30,33,36,39,42,45,48,51,54,57,60,63,66,69,72,75,78,81,84,87,90,93,96,99,102,105,108,111,114,117,120,123,126,129,132,135,138,141,144,147,150,153,156,159,162,165,168,171,174,177,180,183,186,189,192,195,198,201,204,207,210,213,216,219,222,225,228,231,234,237,240,243,246,249,252,255,258,261,264,267,270,273,276,279,282,285,288,291,294,297,300,303,306,309,312,315,318,321,324,327,330,333,336,339,342,345,348,351,354,357,360,363,366,369,372,375,378,381,384,387,390,393,396,399,402,405,408,411,414,417,420,423,426,429,432,435,438,441,444,447,450,453,456,459,462,465,468,471,474,477,480,483,486,489,492,495,498,501,504,507,510,513,516,519,522,525,528,531,534,537,540,543,546,549,552,555,558,561,564,567,570,573,576,579,582,585,588,591,594,597,600,603,606,609,612,615,618,621,624,627,630,633],"tree_info":[0,1,2,0,1,2,0,1,2,0,1,2,0,1,2,0,1,2,0,1,2,0,1,2,0,1,2,0,1,2,0,1,2,0,1,2,0,1,2,0,1,2,0,1,2,0,1,2,0,1,2,0,1,2,0,1,2,0,1,2,0,1,2,0,1,2,0,1,2,0,1,2,0,1,2,0,1,2,0,1,2,0,1,2,0,1,2,0,1,2,0,1,2,0,1,2,0,1,2,0,1,2,0,1,2,0,1,2,0,1,2,0,1,2,0,1,2,0,1,2,0,1,2,0,1,2,0,1,2,0,1,2,0,1,2,0,1,2,0,1,2,0,1,2,0,1,2,0,1,2,0,1,2,0,1,2,0,1,2,0,1,2,0,1,2,0,1,2,0,1,2,0,1,2,0,1,2,0,1,2,0,1,2,0,1,2,0,1,2,0,1,2,0,1,2,0,1,2,0,1,2,0,1,2,0,1,2,0,1,2,0,1,2,0,1,2,0,1,2,0,1,2,0,1,2,0,1,2,0,1,2,0,1,2,0,1,2,0,1,2,0,1,2,0,1,2,0,1,2,0,1,2,0,1,2,0,1,2,0,1,2,0,1,2,0,1,2,0,1,2,0,1,2,0,1,2,0,1,2,0,1,2,0,1,2,0,1,2,0,1,2,0,1,2,0,1,2,0,1,2,0,1,2,0,1,2,0,1,2,0,1,2,0,1,2,0,1,2,0,1,2,0,1,2,0,1,2,0,1,2,0,1,2,0,1,2,0,1,2,0,1,2,0,1,2,0,1,2,0,1,2,0,1,2,0,1,2,0,1,2,0,1,2,0,1,2,0,1,2,0,1,2,0,1,2,0,1,2,0,1,2,0,1,2,0,1,2,0,1,2,0,1,2,0,1,2,0,1,2,0,1,2,0,1,2,0,1,2,0,1,2,0,1,2,0,1,2,0,1,2,0,1,2,0,1,2,0,1,2,0,1,2,0,1,2,0,1,2,0,1,2,0,1,2,0,1,2,0,1,2,0,1,2,0,1,2,0,1,2,0,1,2,0,1,2,0,1,2,0,1,2,0,1,2,0,1,2,0,1,2,0,1,2,0,1,2,0,1,2,0,1,2,0,1,2,0,1,2,0,1,2,0,1,2,0,1,2,0,1,2,0,1,2,0,1,2,0,1,2,0,1,2,0,1,2,0,1,2,0,1,2,0,1,2,0,1,2,0,1,2,0,1,2,0,1,2,0,1,2,0,1,2,0,1,2,0,1,2,0,1,2,0,1,2,0,1,2,0,1,2,0,1,2,0,1,2,0,1,2,0,1,2,0,1,2,0,1,2,0,1,2,0,1,2,0,1,2,0,1,2,0,1,2,0,1,2,0,1,2,0,1,2,0,1,2,0,1,2,0,1,2,0,1,2,0,1,2,0,1,2,0,1,2],"trees":[{"base_weights":[5.6157535E-7,-2.8644353E-1,4.5324337E-1,-7.055102E-3,-1.2430763E-3,1.13127E-2,3.3563478E-3],"categories":[],"categories_nodes":[],"categories_segments":[],"categories_sizes":[],"default_left":[0,0,0,0,0,0,0],"id":0,"left_children":[1,3,5,-1,-1,-1,-1],"loss_changes":[1.1108476E2,2.1920776E1,2.4507874E1,0E0,0E0,0E0,0E0],"parents":[2147483647,0,0,1,1,2,2],"right_children":[2,4,6,-1,-1,-1,-1],"split_conditions":[-1.7716527E-2,-7.572369E-1,-1.8962294E0,-7.055102E-3,-1.2430763E-3,1.13127E-2,3.3563478E-3],"split_indices":[0,0,2,0,0,0,0],"split_type":[0,0,0,0,0,0,0],"sum_hessian":[8.536254E2,5.232841E2,3.3034137E2,2.5335915E2,2.6992496E2,1.2667957E2,2.0366177E2],"tree_param":{"num_deleted":"0","num_feature":"12","num_nodes":"7","size_leaf_vector":"1"}},{"base_weights":[-6.714148E-7,-3.3402303E-1,5.8699813E-2,-7.085474E-3,-3.4506402E-3,1.12787886E-4,4.4063576E-3],"categories":[],"categories_nodes":[],"categories_segments":[],"categories_sizes":[],"default_left":[0,0,0,0,0,0,0],"id":1,"left_children":[1,3,5,-1,-1,-1,-1],"loss_changes":[1.2901572E1,1.3555689E0,7.1490803E0,0E0,0E0,0E0,0E0],"parents":[2147483647,0,0,1,1,2,2],"right_children":[2,4,6,-1,-1,-1,-1],"split_conditions":[-1.8962294E0,-1.7488593E0,-8.317021E-1,-7.085474E-3,-3.4506402E-3,1.12787886E-4,4.4063576E-3],"split_indices":[2,1,1,0,0,0,0],"split_type":[0,0,0,0,0,0,0],"sum_hessian":[6.559993E2,9.73515E1,5.586478E2,3.2949738E1,6.4401764E1,4.657895E2,9.285835E1],"tree_param":{"num_deleted":"0","num_feature":"12","num_nodes":"7","size_leaf_vector":"1"}},{"base_weights":[2.0269907E-8,-2.6973745E-1,5.4961604E-1,-1.1424517E-3,-6.4900136E-3,1.3156824E-2,6.617893E-3],"categories":[],"categories_nodes":[],"categories_segments":[],"categories_sizes":[],"default_left":[0,0,0,0,0,0,0],"id":2,"left_children":[1,3,5,-1,-1,-1,-1],"loss_changes":[1.1523701E2,1.8470394E1,7.613571E0,0E0,0E0,0E0,0E0],"parents":[2147483647,0,0,1,1,2,2],"right_children":[2,4,6,-1,-1,-1,-1],"split_conditions":[-5.6033087E-1,9.5172E-2,-1.2861525E0,-1.1424517E-3,-6.4900136E-3,1.3156824E-2,6.617893E-3],"split_indices":[2,0,1,0,0,0,0],"split_type":[0,0,0,0,0,0,0],"sum_hessian":[7.753048E2,5.204101E2,2.5489473E2,2.597625E2,2.6064755E2,4.4252556E1,2.1064217E2],"tree_param":{"num_deleted":"0","num_feature":"12","num_nodes":"7","size_leaf_vector":"1"}},{"base_weights":[-8.836719E-8,-2.834608E-1,4.473148E-1,-6.985319E-3,-1.2312043E-3,1.1163295E-2,3.3084531E-3],"categories":[],"categories_nodes":[],"categories_segments":[],"categories_sizes":[],"default_left":[0,0,0,0,0,0,0],"id":3,"left_children":[1,3,5,-1,-1,-1,-1],"loss_changes":[1.0848753E2,2.1462082E1,2.3934868E1,0E0,0E0,0E0,0E0],"parents":[2147483647,0,0,1,1,2,2],"right_children":[2,4,6,-1,-1,-1,-1],"split_conditions":[-1.7716527E-2,-7.572369E-1,-1.8962294E0,-6.985319E-3,-1.2312043E-3,1.1163295E-2,3.3084531E-3],"split_indices":[0,0,2,0,0,0,0],"split_type":[0,0,0,0,0,0,0],"sum_hessian":[8.536055E2,5.227245E2,3.30881E2,2.5287444E2,2.6985007E2,1.2701571E2,2.0386531E2],"tree_param":{"num_deleted":"0","num_feature":"12","num_nodes":"7","size_leaf_vector":"1"}},{"base_weights":[-4.4417948E-6,-3.313245E-1,5.794275E-2,-7.04906E-3,-3.4138078E-3,1.084352E-4,4.355295E-3],"categories":[],"categories_nodes":[],"categories_segments":[],"categories_sizes":[],"default_left":[0,0,0,0,0,0,0],"id":4,"left_children":[1,3,5,-1,-1,-1,-1],"loss_changes":[1.263298E1,1.3509808E0,7.0107827E0,0E0,0E0,0E0,0E0],"parents":[2147483647,0,0,1,1,2,2],"right_children":[2,4,6,-1,-1,-1,-1],"split_conditions":[-1.8962294E0,-1.7488593E0,-8.317021E-1,-7.04906E-3,-3.4138078E-3,1.084352E-4,4.355295E-3],"split_indices":[2,1,1,0,0,0,0],"split_type":[0,0,0,0,0,0,0],"sum_hessian":[6.559998E2,9.695132E1,5.590485E2,3.2774506E1,6.417681E1,4.6593173E2,9.311678E1],"tree_param":{"num_deleted":"0","num_feature":"12","num_nodes":"7","size_leaf_vector":"1"}},{"base_weights":[3.8840335E-6,-2.6742145E-1,5.4175645E-1,-1.1338912E-3,-6.4409445E-3,1.2960079E-2,6.522623E-3],"categories":[],"categories_nodes":[],"categories_segments":[],"categories_sizes":[],"default_left":[0,0,0,0,0,0,0],"id":5,"left_children":[1,3,5,-1,-1,-1,-1],"loss_changes":[1.1261228E2,1.8156582E1,7.4194565E0,0E0,0E0,0E0,0E0],"parents":[2147483647,0,0,1,1,2,2],"right_children":[2,4,6,-1,-1,-1,-1],"split_conditions":[-5.6033087E-1,9.5172E-2,-1.2861525E0,-1.1338912E-3,-6.4409445E-3,1.2960079E-2,6.522623E-3],"split_indices":[2,0,1,0,0,0,0],"split_type":[0,0,0,0,0,0,0],"sum_hessian":[7.752885E2,5.1940234E2,2.5588622E2,2.5964957E2,2.5975275E2,4.4513397E1,2.1137282E2],"tree_param":{"num_deleted":"0","num_feature":"12","num_nodes":"7","size_leaf_vector":"1"}},{"base_weights":[-5.7947545E-6,-2.8051794E-1,4.4149208E-1,-6.916609E-3,-1.2194602E-3,1.1017516E-2,3.2612549E-3],"categories":[],"categories_nodes":[],"categories_segments":[],"categories_sizes":[],"default_left":[0,0,0,0,0,0,0],"id":6,"left_children":[1,3,5,-1,-1,-1,-1],"loss_changes":[1.0595575E2,2.1015205E1,2.3382416E1,0E0,0E0,0E0,0E0],"parents":[2147483647,0,0,1,1,2,2],"right_children":[2,4,6,-1,-1,-1,-1],"split_conditions":[-1.7716527E-2,-7.572369E-1,-1.8962294E0,-6.916609E-3,-1.2194602E-3,1.1017516E-2,3.2612549E-3],"split_indices":[0,0,2,0,0,0,0],"split_type":[0,0,0,0,0,0,0],"sum_hessian":[8.535477E2,5.221541E2,3.3139362E2,2.5237874E2,2.6977536E2,1.27331116E2,2.040625E2],"tree_param":{"num_deleted":"0","num_feature":"12","num_nodes":"7","size_leaf_vector":"1"}},{"base_weights":[1.4656412E-7,-3.2863146E-1,5.7202555E-2,-7.0128255E-3,-3.3770304E-3,8.229282E-5,4.2010765E-3],"categories":[],"categories_nodes":[],"categories_segments":[],"categories_sizes":[],"default_left":[0,0,0,0,0,0,0],"id":7,"left_children":[1,3,5,-1,-1,-1,-1],"loss_changes":[1.2369255E1,1.3464708E0,6.878306E0,0E0,0E0,0E0,0E0],"parents":[2147483647,0,0,1,1,2,2],"right_children":[2,4,6,-1,-1,-1,-1],"split_conditions":[-1.8962294E0,-1.7488593E0,-8.378549E-1,-7.0128255E-3,-3.3770304E-3,8.229282E-5,4.2010765E-3],"split_indices":[2,1,1,0,0,0,0],"split_type":[0,0,0,0,0,0,0],"sum_hessian":[6.5599097E2,9.655145E1,5.594395E2,3.259921E1,6.395224E1,4.6119418E2,9.8245316E1],"tree_param":{"num_deleted":"0","num_feature":"12","num_nodes":"7","size_leaf_vector":"1"}},{"base_weights":[6.258853E-6,-2.6512763E-1,5.340675E-1,-1.1254009E-3,-6.39237E-3,4.607264E-3,9.551172E-3],"categories":[],"categories_nodes":[],"categories_segments":[],"categories_sizes":[],"default_left":[0,0,0,0,0,0,0],"id":8,"left_children":[1,3,5,-1,-1,-1,-1],"loss_changes":[1.1005615E2,1.784871E1,7.2841034E0,0E0,0E0,0E0,0E0],"parents":[2147483647,0,0,1,1,2,2],"right_children":[2,4,6,-1,-1,-1,-1],"split_conditions":[-5.6033087E-1,9.5172E-2,-1.6511406E-1,-1.1254009E-3,-6.39237E-3,4.607264E-3,9.551172E-3],"split_indices":[2,0,2,0,0,0,0],"split_type":[0,0,0,0,0,0,0],"sum_hessian":[7.752452E2,5.1839325E2,2.5685196E2,2.5953726E2,2.5885596E2,1.037686E2,1.5308336E2],"tree_param":{"num_deleted":"0","num_feature":"12","num_nodes":"7","size_leaf_vector":"1"}},{"base_weights":[-1.4567114E-5,-2.7760947E-1,4.357685E-1,-6.8481113E-3,-1.2086049E-3,1.0875217E-2,3.2146592E-3],"categories":[],"categories_nodes":[],"categories_segments":[],"categories_sizes":[],"default_left":[0,0,0,0,0,0,0],"id":9,"left_children":[1,3,5,-1,-1,-1,-1],"loss_changes":[1.0348511E2,2.0567986E1,2.2849976E1,0E0,0E0,0E0,0E0],"parents":[2147483647,0,0,1,1,2,2],"right_children":[2,4,6,-1,-1,-1,-1],"split_conditions":[-1.7716527E-2,-7.572369E-1,-1.8962294E0,-6.8481113E-3,-1.2086049E-3,1.0875217E-2,3.2146592E-3],"split_indices":[0,0,2,0,0,0,0],"split_type":[0,0,0,0,0,0,0],"sum_hessian":[8.5345276E2,5.2157263E2,3.318801E2,2.518668E2,2.6970584E2,1.2762629E2,2.0425381E2],"tree_param":{"num_deleted":"0","num_feature":"12","num_nodes":"7","size_leaf_vector":"1"}},{"base_weights":[1.4181152E-5,-3.2594416E-1,5.6480534E-2,-6.9767684E-3,-3.3403127E-3,1.0033019E-4,4.255373E-3],"categories":[],"categories_nodes":[],"categories_segments":[],"categories_sizes":[],"default_left":[0,0,0,0,0,0,0],"id":10,"left_children":[1,3,5,-1,-1,-1,-1],"loss_changes":[1.211043E1,1.3420315E0,6.7416754E0,0E0,0E0,0E0,0E0],"parents":[2147483647,0,0,1,1,2,2],"right_children":[2,4,6,-1,-1,-1,-1],"split_conditions":[-1.8962294E0,-1.7488593E0,-8.317021E-1,-6.9767684E-3,-3.3403127E-3,1.0033019E-4,4.255373E-3],"split_indices":[2,1,1,0,0,0,0],"split_type":[0,0,0,0,0,0,0],"sum_hessian":[6.559722E2,9.615195E1,5.5982025E2,3.2423885E1,6.3728065E1,4.6619614E2,9.3624146E1],"tree_param":{"num_deleted":"0","num_feature":"12","num_nodes":"7","size_leaf_vector":"1"}},{"base_weights":[4.0062278E-6,-2.6285473E-1,5.265267E-1,-1.1169204E-3,-6.3443016E-3,1.2617869E-2,6.331411E-3],"categories":[],"categories_nodes":[],"categories_segments":[],"categories_sizes":[],"default_left":[0,0,0,0,0,0,0],"id":11,"left_children":[1,3,5,-1,-1,-1,-1],"loss_changes":[1.0756224E2,1.7547176E1,7.147087E0,0E0,0E0,0E0,0E0],"parents":[2147483647,0,0,1,1,2,2],"right_children":[2,4,6,-1,-1,-1,-1],"split_conditions":[-5.6033087E-1,9.5172E-2,-1.2861525E0,-1.1169204E-3,-6.3443016E-3,1.2617869E-2,6.331411E-3],"split_indices":[2,0,1,0,0,0,0],"split_type":[0,0,0,0,0,0,0],"sum_hessian":[7.751777E2,5.1738275E2,2.5779495E2,2.5942484E2,2.579579E2,4.4964867E1,2.128301E2],"tree_param":{"num_deleted":"0","num_feature":"12","num_nodes":"7","size_leaf_vector":"1"}},{"base_weights":[-2.9804945E-5,-2.747437E-1,4.3014848E-1,-6.7814537E-3,-1.1971123E-3,1.0736269E-2,3.168812E-3],"categories":[],"categories_nodes":[],"categories_segments":[],"categories_sizes":[],"default_left":[0,0,0,0,0,0,0],"id":12,"left_children":[1,3,5,-1,-1,-1,-1],"loss_changes":[1.010786E2,2.0143589E1,2.233561E1,0E0,0E0,0E0,0E0],"parents":[2147483647,0,0,1,1,2,2],"right_children":[2,4,6,-1,-1,-1,-1],"split_conditions":[-1.7716527E-2,-7.572369E-1,-1.8962294E0,-6.7814537E-3,-1.1971123E-3,1.0736269E-2,3.168812E-3],"split_indices":[0,0,2,0,0,0,0],"split_type":[0,0,0,0,0,0,0],"sum_hessian":[8.533228E2,5.209823E2,3.3234045E2,2.5135078E2,2.6963153E2,1.27901695E2,2.0443877E2],"tree_param":{"num_deleted":"0","num_feature":"12","num_nodes":"7","size_leaf_vector":"1"}},{"base_weights":[3.4354867E-5,-3.232626E-1,5.577258E-2,-6.940885E-3,-3.3036566E-3,7.4966796E-5,4.1050473E-3],"categories":[],"categories_nodes":[],"categories_segments":[],"categories_sizes":[],"default_left":[0,0,0,0,0,0,0],"id":13,"left_children":[1,3,5,-1,-1,-1,-1],"loss_changes":[1.185619E1,1.3376617E0,6.6140685E0,0E0,0E0,0E0,0E0],"parents":[2147483647,0,0,1,1,2,2],"right_children":[2,4,6,-1,-1,-1,-1],"split_conditions":[-1.8962294E0,-1.7488593E0,-8.378549E-1,-6.940885E-3,-3.3036566E-3,7.4966796E-5,4.1050473E-3],"split_indices":[2,1,1,0,0,0,0],"split_type":[0,0,0,0,0,0,0],"sum_hessian":[6.5594574E2,9.575292E1,5.601928E2,3.224858E1,6.350434E1,4.614307E2,9.87621E1],"tree_param":{"num_deleted":"0","num_feature":"12","num_nodes":"7","size_leaf_vector":"1"}},{"base_weights":[3.740445E-6,-2.606041E-1,5.191621E-1,-1.1085669E-3,-6.296683E-3,4.4653504E-3,9.28826E-3],"categories":[],"categories_nodes":[],"categories_segments":[],"categories_sizes":[],"default_left":[0,0,0,0,0,0,0],"id":14,"left_children":[1,3,5,-1,-1,-1,-1],"loss_changes":[1.0513677E2,1.7250736E1,6.9814606E0,0E0,0E0,0E0,0E0],"parents":[2147483647,0,0,1,1,2,2],"right_children":[2,4,6,-1,-1,-1,-1],"split_conditions":[-5.6033087E-1,9.5172E-2,-1.6511406E-1,-1.1085669E-3,-6.296683E-3,4.4653504E-3,9.28826E-3],"split_indices":[2,0,2,0,0,0,0],"split_type":[0,0,0,0,0,0,0],"sum_hessian":[7.750829E2,5.163718E2,2.5871103E2,2.5931387E2,2.5705795E2,1.04336044E2,1.5437498E2],"tree_param":{"num_deleted":"0","num_feature":"12","num_nodes":"7","size_leaf_vector":"1"}},{"base_weights":[-4.7745E-5,-2.719109E-1,4.246221E-1,-6.7149703E-3,-1.1864882E-3,1.0600546E-2,3.123543E-3],"categories":[],"categories_nodes":[],"categories_segments":[],"categories_sizes":[],"default_left":[0,0,0,0,0,0,0],"id":15,"left_children":[1,3,5,-1,-1,-1,-1],"loss_changes":[9.872977E1,1.9718616E1,2.1839409E1,0E0,0E0,0E0,0E0],"parents":[2147483647,0,0,1,1,2,2],"right_children":[2,4,6,-1,-1,-1,-1],"split_conditions":[-1.7716527E-2,-7.572369E-1,-1.8962294E0,-6.7149703E-3,-1.1864882E-3,1.0600546E-2,3.123543E-3],"split_indices":[0,0,2,0,0,0,0],"split_type":[0,0,0,0,0,0,0],"sum_hessian":[8.5315784E2,5.203819E2,3.3277594E2,2.5081943E2,2.6956247E2,1.281578E2,2.0461813E2],"tree_param":{"num_deleted":"0","num_feature":"12","num_nodes":"7","size_leaf_vector":"1"}},{"base_weights":[6.328957E-5,-3.2058692E-1,5.50819E-2,-6.9051753E-3,-3.2670668E-3,9.2901275E-5,4.158553E-3],"categories":[],"categories_nodes":[],"categories_segments":[],"categories_sizes":[],"default_left":[0,0,0,0,0,0,0],"id":16,"left_children":[1,3,5,-1,-1,-1,-1],"loss_changes":[1.1606688E1,1.3333559E0,6.4832935E0,0E0,0E0,0E0,0E0],"parents":[2147483647,0,0,1,1,2,2],"right_children":[2,4,6,-1,-1,-1,-1],"split_conditions":[-1.8962294E0,-1.7488593E0,-8.317021E-1,-6.9051753E-3,-3.2670668E-3,9.2901275E-5,4.158553E-3],"split_indices":[2,1,1,0,0,0,0],"split_type":[0,0,0,0,0,0,0],"sum_hessian":[6.5591E2,9.535443E1,5.6055554E2,3.2073322E1,6.328111E1,4.664378E2,9.411775E1],"tree_param":{"num_deleted":"0","num_feature":"12","num_nodes":"7","size_leaf_vector":"1"}},{"base_weights":[-1.0483899E-6,-2.5837386E-1,5.119359E-1,-1.1002244E-3,-6.249551E-3,1.229285E-2,6.147907E-3],"categories":[],"categories_nodes":[],"categories_segments":[],"categories_sizes":[],"default_left":[0,0,0,0,0,0,0],"id":17,"left_children":[1,3,5,-1,-1,-1,-1],"loss_changes":[1.0276964E2,1.6960323E1,6.8938446E0,0E0,0E0,0E0,0E0],"parents":[2147483647,0,0,1,1,2,2],"right_children":[2,4,6,-1,-1,-1,-1],"split_conditions":[-5.6033087E-1,9.5172E-2,-1.2861525E0,-1.1002244E-3,-6.249551E-3,1.229285E-2,6.147907E-3],"split_indices":[2,0,1,0,0,0,0],"split_type":[0,0,0,0,0,0,0],"sum_hessian":[7.7496515E2,5.1536005E2,2.5960513E2,2.592028E2,2.5615726E2,4.5389927E1,2.142152E2],"tree_param":{"num_deleted":"0","num_feature":"12","num_nodes":"7","size_leaf_vector":"1"}},{"base_weights":[-7.1648006E-5,-2.6911888E-1,4.1919363E-1,-6.650247E-3,-1.1752391E-3,1.0467927E-2,3.0789946E-3],"categories":[],"categories_nodes":[],"categories_segments":[],"categories_sizes":[],"default_left":[0,0,0,0,0,0,0],"id":18,"left_children":[1,3,5,-1,-1,-1,-1],"loss_changes":[9.644137E1,1.9315193E1,2.1359573E1,0E0,0E0,0E0,0E0],"parents":[2147483647,0,0,1,1,2,2],"right_children":[2,4,6,-1,-1,-1,-1],"split_conditions":[-1.7716527E-2,-7.572369E-1,-1.8962294E0,-6.650247E-3,-1.1752391E-3,1.0467927E-2,3.0789946E-3],"split_indices":[0,0,2,0,0,0,0],"split_type":[0,0,0,0,0,0,0],"sum_hessian":[8.529603E2,5.197738E2,3.3318655E2,2.5028517E2,2.6948862E2,1.2839507E2,2.0479147E2],"tree_param":{"num_deleted":"0","num_feature":"12","num_nodes":"7","size_leaf_vector":"1"}},{"base_weights":[9.7682794E-5,-3.1791717E-1,5.4404397E-2,-6.8696355E-3,-3.2305443E-3,6.828802E-5,4.011965E-3],"categories":[],"categories_nodes":[],"categories_segments":[],"categories_sizes":[],"default_left":[0,0,0,0,0,0,0],"id":19,"left_children":[1,3,5,-1,-1,-1,-1],"loss_changes":[1.1361614E1,1.3291101E0,6.3602943E0,0E0,0E0,0E0,0E0],"parents":[2147483647,0,0,1,1,2,2],"right_children":[2,4,6,-1,-1,-1,-1],"split_conditions":[-1.8962294E0,-1.7488593E0,-8.378549E-1,-6.8696355E-3,-3.2305443E-3,6.828802E-5,4.011965E-3],"split_indices":[2,1,1,0,0,0,0],"split_type":[0,0,0,0,0,0,0],"sum_hessian":[6.5586707E2,9.495656E1,5.609105E2,3.1898155E1,6.3058403E1,4.616456E2,9.926491E1],"tree_param":{"num_deleted":"0","num_feature":"12","num_nodes":"7","size_leaf_vector":"1"}},{"base_weights":[-3.8201442E-6,-2.5616524E-1,5.048746E-1,-1.0920069E-3,-6.202849E-3,1.2120125E-2,6.0619363E-3],"categories":[],"categories_nodes":[],"categories_segments":[],"categories_sizes":[],"default_left":[0,0,0,0,0,0,0],"id":20,"left_children":[1,3,5,-1,-1,-1,-1],"loss_changes":[1.0046667E2,1.6674755E1,6.7316895E0,0E0,0E0,0E0,0E0],"parents":[2147483647,0,0,1,1,2,2],"right_children":[2,4,6,-1,-1,-1,-1],"split_conditions":[-5.6033087E-1,9.5172E-2,-1.2861525E0,-1.0920069E-3,-6.202849E-3,1.2120125E-2,6.0619363E-3],"split_indices":[2,0,1,0,0,0,0],"split_type":[0,0,0,0,0,0,0],"sum_hessian":[7.748219E2,5.143483E2,2.6047357E2,2.590931E2,2.5525519E2,4.561387E1,2.1485971E2],"tree_param":{"num_deleted":"0","num_feature":"12","num_nodes":"7","size_leaf_vector":"1"}},{"base_weights":[-9.956621E-5,-2.6636073E-1,4.1385362E-1,-6.5864744E-3,-1.1640331E-3,1.0338296E-2,3.0350026E-3],"categories":[],"categories_nodes":[],"categories_segments":[],"categories_sizes":[],"default_left":[0,0,0,0,0,0,0],"id":21,"left_children":[1,3,5,-1,-1,-1,-1],"loss_changes":[9.420813E1,1.8922356E1,2.0896194E1,0E0,0E0,0E0,0E0],"parents":[2147483647,0,0,1,1,2,2],"right_children":[2,4,6,-1,-1,-1,-1],"split_conditions":[-1.7716527E-2,-7.572369E-1,-1.8962294E0,-6.5864744E-3,-1.1640331E-3,1.0338296E-2,3.0350026E-3],"split_indices":[0,0,2,0,0,0,0],"split_type":[0,0,0,0,0,0,0],"sum_hessian":[8.527306E2,5.1915717E2,3.3357346E2,2.4974266E2,2.694145E2,1.2861395E2,2.0495949E2],"tree_param":{"num_deleted":"0","num_feature":"12","num_nodes":"7","size_leaf_vector":"1"}},{"base_weights":[1.3853911E-4,-3.1525353E-1,5.3741295E-2,-6.834265E-3,-3.1940946E-3,8.588699E-5,4.0658396E-3],"categories":[],"categories_nodes":[],"categories_segments":[],"categories_sizes":[],"default_left":[0,0,0,0,0,0,0],"id":22,"left_children":[1,3,5,-1,-1,-1,-1],"loss_changes":[1.1121005E1,1.3249207E0,6.239128E0,0E0,0E0,0E0,0E0],"parents":[2147483647,0,0,1,1,2,2],"right_children":[2,4,6,-1,-1,-1,-1],"split_conditions":[-1.8962294E0,-1.7488593E0,-8.317021E-1,-6.834265E-3,-3.1940946E-3,8.588699E-5,4.0658396E-3],"split_indices":[2,1,1,0,0,0,0],"split_type":[0,0,0,0,0,0,0],"sum_hessian":[6.5581647E2,9.455938E1,5.6125714E2,3.1723106E1,6.2836273E1,4.6666492E2,9.459219E1],"tree_param":{"num_deleted":"0","num_feature":"12","num_nodes":"7","size_leaf_vector":"1"}},{"base_weights":[-7.719156E-6,-2.5397632E-1,4.9795538E-1,-1.0837998E-3,-6.156612E-3,4.255084E-3,8.92157E-3],"categories":[],"categories_nodes":[],"categories_segments":[],"categories_sizes":[],"default_left":[0,0,0,0,0,0,0],"id":23,"left_children":[1,3,5,-1,-1,-1,-1],"loss_changes":[9.822127E1,1.6394924E1,6.603546E0,0E0,0E0,0E0,0E0],"parents":[2147483647,0,0,1,1,2,2],"right_children":[2,4,6,-1,-1,-1,-1],"split_conditions":[-5.6033087E-1,9.5172E-2,-1.6511406E-1,-1.0837998E-3,-6.156612E-3,4.255084E-3,8.92157E-3],"split_indices":[2,0,2,0,0,0,0],"split_type":[0,0,0,0,0,0,0],"sum_hessian":[7.7465546E2,5.1333624E2,2.6131918E2,2.5898337E2,2.5435289E2,1.05167E2,1.5615218E2],"tree_param":{"num_deleted":"0","num_feature":"12","num_nodes":"7","size_leaf_vector":"1"}},{"base_weights":[-1.2978558E-4,-2.6363716E-1,4.086064E-1,-6.5227756E-3,-1.1538254E-3,1.0211548E-2,2.9917036E-3],"categories":[],"categories_nodes":[],"categories_segments":[],"categories_sizes":[],"default_left":[0,0,0,0,0,0,0],"id":24,"left_children":[1,3,5,-1,-1,-1,-1],"loss_changes":[9.2030624E1,1.8527195E1,2.0447655E1,0E0,0E0,0E0,0E0],"parents":[2147483647,0,0,1,1,2,2],"right_children":[2,4,6,-1,-1,-1,-1],"split_conditions":[-1.7716527E-2,-7.572369E-1,-1.8962294E0,-6.5227756E-3,-1.1538254E-3,1.0211548E-2,2.9917036E-3],"split_indices":[0,0,2,0,0,0,0],"split_type":[0,0,0,0,0,0,0],"sum_hessian":[8.524692E2,5.185325E2,3.339367E2,2.491858E2,2.6934665E2,1.2881494E2,2.0512178E2],"tree_param":{"num_deleted":"0","num_feature":"12","num_nodes":"7","size_leaf_vector":"1"}},{"base_weights":[1.8740585E-4,-3.1259593E-1,5.3094435E-2,-6.799059E-3,-3.1577186E-3,6.2211475E-5,3.921698E-3],"categories":[],"categories_nodes":[],"categories_segments":[],"categories_sizes":[],"default_left":[0,0,0,0,0,0,0],"id":25,"left_children":[1,3,5,-1,-1,-1,-1],"loss_changes":[1.0884909E1,1.3207836E0,6.11653E0,0E0,0E0,0E0,0E0],"parents":[2147483647,0,0,1,1,2,2],"right_children":[2,4,6,-1,-1,-1,-1],"split_conditions":[-1.8962294E0,-1.7488593E0,-8.378549E-1,-6.799059E-3,-3.1577186E-3,6.2211475E-5,3.921698E-3],"split_indices":[2,1,1,0,0,0,0],"split_type":[0,0,0,0,0,0,0],"sum_hessian":[6.5575757E2,9.416298E1,5.615946E2,3.1548218E1,6.261476E1,4.618404E2,9.9754196E1],"tree_param":{"num_deleted":"0","num_feature":"12","num_nodes":"7","size_leaf_vector":"1"}},{"base_weights":[-1.5889724E-5,-2.5180835E-1,4.911657E-1,-8.103786E-3,-2.1656847E-3,1.18189715E-2,5.889054E-3],"categories":[],"categories_nodes":[],"categories_segments":[],"categories_sizes":[],"default_left":[0,0,0,0,0,0,0],"id":26,"left_children":[1,3,5,-1,-1,-1,-1],"loss_changes":[9.6030365E1,1.61688E1,6.5053062E0,0E0,0E0,0E0,0E0],"parents":[2147483647,0,0,1,1,2,2],"right_children":[2,4,6,-1,-1,-1,-1],"split_conditions":[-5.6033087E-1,-1.8371252E0,-1.2861525E0,-8.103786E-3,-2.1656847E-3,1.18189715E-2,5.889054E-3],"split_indices":[2,2,1,0,0,0,0],"split_type":[0,0,0,0,0,0,0],"sum_hessian":[7.744684E2,5.1232477E2,2.6214368E2,1.20347496E2,3.9197723E2,4.6000275E1,2.1614339E2],"tree_param":{"num_deleted":"0","num_feature":"12","num_nodes":"7","size_leaf_vector":"1"}},{"base_weights":[-1.6550701E-4,-2.6107913E-1,4.036947E-1,-6.460841E-3,-1.14659E-3,1.0078651E-2,2.9595918E-3],"categories":[],"categories_nodes":[],"categories_segments":[],"categories_sizes":[],"default_left":[0,0,0,0,0,0,0],"id":27,"left_children":[1,3,5,-1,-1,-1,-1],"loss_changes":[9.000695E1,1.8128838E1,1.9903175E1,0E0,0E0,0E0,0E0],"parents":[2147483647,0,0,1,1,2,2],"right_children":[2,4,6,-1,-1,-1,-1],"split_conditions":[-1.7716527E-2,-7.572369E-1,-1.8962294E0,-6.460841E-3,-1.14659E-3,1.0078651E-2,2.9595918E-3],"split_indices":[0,0,2,0,0,0,0],"split_type":[0,0,0,0,0,0,0],"sum_hessian":[8.5217755E2,5.179256E2,3.3425198E2,2.4862842E2,2.6929715E2,1.2901114E2,2.0524084E2],"tree_param":{"num_deleted":"0","num_feature":"12","num_nodes":"7","size_leaf_vector":"1"}},{"base_weights":[2.4338448E-4,-3.102117E-1,5.2533098E-2,-6.766719E-3,-3.1257325E-3,8.1362115E-5,3.9718426E-3],"categories":[],"categories_nodes":[],"categories_segments":[],"categories_sizes":[],"default_left":[0,0,0,0,0,0,0],"id":28,"left_children":[1,3,5,-1,-1,-1,-1],"loss_changes":[1.0676783E1,1.3158674E0,5.9870625E0,0E0,0E0,0E0,0E0],"parents":[2147483647,0,0,1,1,2,2],"right_children":[2,4,6,-1,-1,-1,-1],"split_conditions":[-1.8962294E0,-1.7488593E0,-8.317021E-1,-6.766719E-3,-3.1257325E-3,8.1362115E-5,3.9718426E-3],"split_indices":[2,1,1,0,0,0,0],"split_type":[0,0,0,0,0,0,0],"sum_hessian":[6.556923E2,9.380711E1,5.618852E2,3.1387005E1,6.242011E1,4.6681033E2,9.507488E1],"tree_param":{"num_deleted":"0","num_feature":"12","num_nodes":"7","size_leaf_vector":"1"}},{"base_weights":[-2.4040564E-5,-2.4965993E-1,4.8452175E-1,-1.0603298E-3,-6.070931E-3,1.1658575E-2,5.807969E-3],"categories":[],"categories_nodes":[],"categories_segments":[],"categories_sizes":[],"default_left":[0,0,0,0,0,0,0],"id":29,"left_children":[1,3,5,-1,-1,-1,-1],"loss_changes":[9.389688E1,1.5932102E1,6.3590736E0,0E0,0E0,0E0,0E0],"parents":[2147483647,0,0,1,1,2,2],"right_children":[2,4,6,-1,-1,-1,-1],"split_conditions":[-5.6033087E-1,9.5172E-2,-1.2861525E0,-1.0603298E-3,-6.070931E-3,1.1658575E-2,5.807969E-3],"split_indices":[2,0,1,0,0,0,0],"split_type":[0,0,0,0,0,0,0],"sum_hessian":[7.742637E2,5.113191E2,2.629446E2,2.5866953E2,2.5264957E2,4.620361E1,2.1674101E2],"tree_param":{"num_deleted":"0","num_feature":"12","num_nodes":"7","size_leaf_vector":"1"}},{"base_weights":[-2.0451182E-4,-2.584237E-1,3.9861467E-1,-6.399673E-3,-1.1357559E-3,9.957493E-3,2.9173612E-3],"categories":[],"categories_nodes":[],"categories_segments":[],"categories_sizes":[],"default_left":[0,0,0,0,0,0,0],"id":30,"left_children":[1,3,5,-1,-1,-1,-1],"loss_changes":[8.793264E1,1.7763786E1,1.9485725E1,0E0,0E0,0E0,0E0],"parents":[2147483647,0,0,1,1,2,2],"right_children":[2,4,6,-1,-1,-1,-1],"split_conditions":[-1.7716527E-2,-7.572369E-1,-1.8962294E0,-6.399673E-3,-1.1357559E-3,9.957493E-3,2.9173612E-3],"split_indices":[0,0,2,0,0,0,0],"split_type":[0,0,0,0,0,0,0],"sum_hessian":[8.518576E2,5.1728723E2,3.3457037E2,2.480633E2,2.6922394E2,1.2917644E2,2.0539395E2],"tree_param":{"num_deleted":"0","num_feature":"12","num_nodes":"7","size_leaf_vector":"1"}},{"base_weights":[3.0240076E-4,-3.0756575E-1,5.1910754E-2,-6.731825E-3,-3.089499E-3,5.8180154E-5,3.832347E-3],"categories":[],"categories_nodes":[],"categories_segments":[],"categories_sizes":[],"default_left":[0,0,0,0,0,0,0],"id":31,"left_children":[1,3,5,-1,-1,-1,-1],"loss_changes":[1.0448724E1,1.3118324E0,5.8725343E0,0E0,0E0,0E0,0E0],"parents":[2147483647,0,0,1,1,2,2],"right_children":[2,4,6,-1,-1,-1,-1],"split_conditions":[-1.8962294E0,-1.7488593E0,-8.378549E-1,-6.731825E-3,-3.089499E-3,5.8180154E-5,3.832347E-3],"split_indices":[2,1,1,0,0,0,0],"split_type":[0,0,0,0,0,0,0],"sum_hessian":[6.5562036E2,9.341231E1,5.6220807E2,3.1212498E1,6.219981E1,4.61968E2,1.0024008E2],"tree_param":{"num_deleted":"0","num_feature":"12","num_nodes":"7","size_leaf_vector":"1"}},{"base_weights":[-3.11781E-5,-2.4753135E-1,4.780114E-1,-8.008253E-3,-2.1253664E-3,4.056225E-3,8.578259E-3],"categories":[],"categories_nodes":[],"categories_segments":[],"categories_sizes":[],"default_left":[0,0,0,0,0,0,0],"id":32,"left_children":[1,3,5,-1,-1,-1,-1],"loss_changes":[9.18168E1,1.5750504E1,6.260235E0,0E0,0E0,0E0,0E0],"parents":[2147483647,0,0,1,1,2,2],"right_children":[2,4,6,-1,-1,-1,-1],"split_conditions":[-5.6033087E-1,-1.8371252E0,-1.6511406E-1,-8.008253E-3,-2.1253664E-3,4.056225E-3,8.578259E-3],"split_indices":[2,2,2,0,0,0,0],"split_type":[0,0,0,0,0,0,0],"sum_hessian":[7.7403284E2,5.103092E2,2.637236E2,1.19239525E2,3.910697E2,1.0594047E2,1.5778313E2],"tree_param":{"num_deleted":"0","num_feature":"12","num_nodes":"7","size_leaf_vector":"1"}},{"base_weights":[-2.4590717E-4,-2.559262E-1,3.9386013E-1,-6.3386313E-3,-1.129412E-3,9.830254E-3,2.8861063E-3],"categories":[],"categories_nodes":[],"categories_segments":[],"categories_sizes":[],"default_left":[0,0,0,0,0,0,0],"id":33,"left_children":[1,3,5,-1,-1,-1,-1],"loss_changes":[8.600383E1,1.7373993E1,1.8975822E1,0E0,0E0,0E0,0E0],"parents":[2147483647,0,0,1,1,2,2],"right_children":[2,4,6,-1,-1,-1,-1],"split_conditions":[-1.7716527E-2,-7.572369E-1,-1.8962294E0,-6.3386313E-3,-1.129412E-3,9.830254E-3,2.8861063E-3],"split_indices":[0,0,2,0,0,0,0],"split_type":[0,0,0,0,0,0,0],"sum_hessian":[8.515075E2,5.166659E2,3.348416E2,2.474859E2,2.6917996E2,1.2933553E2,2.0550609E2],"tree_param":{"num_deleted":"0","num_feature":"12","num_nodes":"7","size_leaf_vector":"1"}},{"base_weights":[3.7161756E-4,-3.856296E-1,4.0769022E-2,-4.442847E-3,-8.623801E-3,-8.0494145E-5,3.7856936E-3],"categories":[],"categories_nodes":[],"categories_segments":[],"categories_sizes":[],"default_left":[0,0,0,0,0,0,0],"id":34,"left_children":[1,3,5,-1,-1,-1,-1],"loss_changes":[1.0253455E1,8.135929E-1,6.24845E0,0E0,0E0,0E0,0E0],"parents":[2147483647,0,0,1,1,2,2],"right_children":[2,4,6,-1,-1,-1,-1],"split_conditions":[-1.5912533E0,7.7958E-1,-8.378549E-1,-4.442847E-3,-8.623801E-3,-8.0494145E-5,3.7856936E-3],"split_indices":[1,10,1,0,0,0,0],"split_type":[0,0,0,0,0,0,0],"sum_hessian":[6.555408E2,6.1296906E1,5.942439E2,4.8012753E1,1.328415E1,4.9374945E2,1.0049444E2],"tree_param":{"num_deleted":"0","num_feature":"12","num_nodes":"7","size_leaf_vector":"1"}},{"base_weights":[-4.433733E-5,-2.4542181E-1,4.7161412E-1,-7.957428E-3,-2.1073786E-3,1.1378686E-2,5.6447834E-3],"categories":[],"categories_nodes":[],"categories_segments":[],"categories_sizes":[],"default_left":[0,0,0,0,0,0,0],"id":35,"left_children":[1,3,5,-1,-1,-1,-1],"loss_changes":[8.978543E1,1.5511751E1,6.155716E0,0E0,0E0,0E0,0E0],"parents":[2147483647,0,0,1,1,2,2],"right_children":[2,4,6,-1,-1,-1,-1],"split_conditions":[-5.6033087E-1,-1.8371252E0,-1.2861525E0,-7.957428E-3,-2.1073786E-3,1.1378686E-2,5.6447834E-3],"split_indices":[2,2,1,0,0,0,0],"split_type":[0,0,0,0,0,0,0],"sum_hessian":[7.7378876E2,5.0930536E2,2.644834E2,1.1863698E2,3.906684E2,4.6553566E1,2.1792982E2],"tree_param":{"num_deleted":"0","num_feature":"12","num_nodes":"7","size_leaf_vector":"1"}},{"base_weights":[-2.8531096E-4,-2.5350413E-1,3.8927606E-1,-6.280076E-3,-1.122606E-3,9.710291E-3,2.8547023E-3],"categories":[],"categories_nodes":[],"categories_segments":[],"categories_sizes":[],"default_left":[0,0,0,0,0,0,0],"id":36,"left_children":[1,3,5,-1,-1,-1,-1],"loss_changes":[8.4157234E1,1.7008633E1,1.851036E1,0E0,0E0,0E0,0E0],"parents":[2147483647,0,0,1,1,2,2],"right_children":[2,4,6,-1,-1,-1,-1],"split_conditions":[-1.7716527E-2,-7.572369E-1,-1.8962294E0,-6.280076E-3,-1.122606E-3,9.710291E-3,2.8547023E-3],"split_indices":[0,0,2,0,0,0,0],"split_type":[0,0,0,0,0,0,0],"sum_hessian":[8.511383E2,5.160499E2,3.3508838E2,2.4691783E2,2.6913208E2,1.2947125E2,2.0561711E2],"tree_param":{"num_deleted":"0","num_feature":"12","num_nodes":"7","size_leaf_vector":"1"}},{"base_weights":[4.4201015E-4,-3.0326033E-1,5.0961606E-2,-6.672556E-3,-3.0326387E-3,7.796041E-5,3.8357077E-3],"categories":[],"categories_nodes":[],"categories_segments":[],"categories_sizes":[],"default_left":[0,0,0,0,0,0,0],"id":37,"left_children":[1,3,5,-1,-1,-1,-1],"loss_changes":[1.0087488E1,1.3013964E0,5.619524E0,0E0,0E0,0E0,0E0],"parents":[2147483647,0,0,1,1,2,2],"right_children":[2,4,6,-1,-1,-1,-1],"split_conditions":[-1.8962294E0,-1.7488593E0,-8.317021E-1,-6.672556E-3,-3.0326387E-3,7.796041E-5,3.8357077E-3],"split_indices":[2,1,1,0,0,0,0],"split_type":[0,0,0,0,0,0,0],"sum_hessian":[6.554613E2,9.276923E1,5.626921E2,3.0914824E1,6.1854412E1,4.669153E2,9.577673E1],"tree_param":{"num_deleted":"0","num_feature":"12","num_nodes":"7","size_leaf_vector":"1"}},{"base_weights":[-6.070933E-5,-2.433072E-1,4.6526E-1,-1.0225963E-3,-5.947419E-3,8.447317E-3,4.0630973E-3],"categories":[],"categories_nodes":[],"categories_segments":[],"categories_sizes":[],"default_left":[0,0,0,0,0,0,0],"id":38,"left_children":[1,3,5,-1,-1,-1,-1],"loss_changes":[8.777933E1,1.5299391E1,6.021641E0,0E0,0E0,0E0,0E0],"parents":[2147483647,0,0,1,1,2,2],"right_children":[2,4,6,-1,-1,-1,-1],"split_conditions":[-5.6033087E-1,9.5172E-2,-1.061465E0,-1.0225963E-3,-5.947419E-3,8.447317E-3,4.0630973E-3],"split_indices":[2,0,0,0,0,0,0],"split_type":[0,0,0,0,0,0,0],"sum_hessian":[7.735204E2,5.082892E2,2.6523117E2,2.5816278E2,2.5012642E2,1.523042E2,1.12926956E2],"tree_param":{"num_deleted":"0","num_feature":"12","num_nodes":"7","size_leaf_vector":"1"}},{"base_weights":[-3.326132E-4,-2.5093946E-1,3.8442737E-1,-6.220613E-3,-1.1127018E-3,9.596755E-3,2.8139541E-3],"categories":[],"categories_nodes":[],"categories_segments":[],"categories_sizes":[],"default_left":[0,0,0,0,0,0,0],"id":39,"left_children":[1,3,5,-1,-1,-1,-1],"loss_changes":[8.222391E1,1.6660583E1,1.8134628E1,0E0,0E0,0E0,0E0],"parents":[2147483647,0,0,1,1,2,2],"right_children":[2,4,6,-1,-1,-1,-1],"split_conditions":[-1.7716527E-2,-7.572369E-1,-1.8962294E0,-6.220613E-3,-1.1127018E-3,9.596755E-3,2.8139541E-3],"split_indices":[0,0,2,0,0,0,0],"split_type":[0,0,0,0,0,0,0],"sum_hessian":[8.507368E2,5.153925E2,3.353443E2,2.4632822E2,2.690643E2,1.295865E2,2.057578E2],"tree_param":{"num_deleted":"0","num_feature":"12","num_nodes":"7","size_leaf_vector":"1"}},{"base_weights":[5.1863224E-4,-3.8113517E-1,4.011106E-2,-4.374787E-3,-8.5809855E-3,-7.729525E-5,3.7000987E-3],"categories":[],"categories_nodes":[],"categories_segments":[],"categories_sizes":[],"default_left":[0,0,0,0,0,0,0],"id":40,"left_children":[1,3,5,-1,-1,-1,-1],"loss_changes":[9.933432E0,8.199997E-1,5.9872317E0,0E0,0E0,0E0,0E0],"parents":[2147483647,0,0,1,1,2,2],"right_children":[2,4,6,-1,-1,-1,-1],"split_conditions":[-1.5912533E0,7.7958E-1,-8.378549E-1,-4.374787E-3,-8.5809855E-3,-7.729525E-5,3.7000987E-3],"split_indices":[1,10,1,0,0,0,0],"split_type":[0,0,0,0,0,0,0],"sum_hessian":[6.5536993E2,6.0786648E1,5.945833E2,4.7634193E1,1.3152455E1,4.9362137E2,1.0096195E2],"tree_param":{"num_deleted":"0","num_feature":"12","num_nodes":"7","size_leaf_vector":"1"}},{"base_weights":[-7.3756026E-5,-2.4123603E-1,4.5910963E-1,-7.863677E-3,-2.06842E-3,1.110449E-2,5.4874136E-3],"categories":[],"categories_nodes":[],"categories_segments":[],"categories_sizes":[],"default_left":[0,0,0,0,0,0,0],"id":41,"left_children":[1,3,5,-1,-1,-1,-1],"loss_changes":[8.584758E1,1.5104145E1,5.9512215E0,0E0,0E0,0E0,0E0],"parents":[2147483647,0,0,1,1,2,2],"right_children":[2,4,6,-1,-1,-1,-1],"split_conditions":[-5.6033087E-1,-1.8371252E0,-1.2861525E0,-7.863677E-3,-2.06842E-3,1.110449E-2,5.4874136E-3],"split_indices":[2,2,1,0,0,0,0],"split_type":[0,0,0,0,0,0,0],"sum_hessian":[7.732334E2,5.072836E2,2.6594977E2,1.1750167E2,3.8978192E2,4.6889393E1,2.1906038E2],"tree_param":{"num_deleted":"0","num_feature":"12","num_nodes":"7","size_leaf_vector":"1"}},{"base_weights":[-3.772596E-4,-2.4857417E-1,3.799854E-1,-6.1635613E-3,-1.1059878E-3,9.48163E-3,2.783392E-3],"categories":[],"categories_nodes":[],"categories_segments":[],"categories_sizes":[],"default_left":[0,0,0,0,0,0,0],"id":42,"left_children":[1,3,5,-1,-1,-1,-1],"loss_changes":[8.046292E1,1.6312328E1,1.769712E1,0E0,0E0,0E0,0E0],"parents":[2147483647,0,0,1,1,2,2],"right_children":[2,4,6,-1,-1,-1,-1],"split_conditions":[-1.7716527E-2,-7.572369E-1,-1.8962294E0,-6.1635613E-3,-1.1059878E-3,9.48163E-3,2.783392E-3],"split_indices":[0,0,2,0,0,0,0],"split_type":[0,0,0,0,0,0,0],"sum_hessian":[8.503172E2,5.147654E2,3.3555182E2,2.4574905E2,2.690163E2,1.2968967E2,2.0586215E2],"tree_param":{"num_deleted":"0","num_feature":"12","num_nodes":"7","size_leaf_vector":"1"}},{"base_weights":[5.989804E-4,-3.7880003E-1,3.9778512E-2,-4.341678E-3,-8.554819E-3,-7.558296E-5,3.6565845E-3],"categories":[],"categories_nodes":[],"categories_segments":[],"categories_sizes":[],"default_left":[0,0,0,0,0,0,0],"id":43,"left_children":[1,3,5,-1,-1,-1,-1],"loss_changes":[9.77044E0,8.198652E-1,5.855895E0,0E0,0E0,0E0,0E0],"parents":[2147483647,0,0,1,1,2,2],"right_children":[2,4,6,-1,-1,-1,-1],"split_conditions":[-1.5912533E0,7.7958E-1,-8.378549E-1,-4.341678E-3,-8.554819E-3,-7.558296E-5,3.6565845E-3],"split_indices":[1,10,1,0,0,0,0],"split_type":[0,0,0,0,0,0,0],"sum_hessian":[6.5527893E2,6.0523647E1,5.9475525E2,4.745167E1,1.3071977E1,4.9355508E2,1.01200165E2],"tree_param":{"num_deleted":"0","num_feature":"12","num_nodes":"7","size_leaf_vector":"1"}},{"base_weights":[-9.294746E-5,-2.3916046E-1,4.52995E-1,-7.813103E-3,-2.051178E-3,1.0955862E-2,5.413251E-3],"categories":[],"categories_nodes":[],"categories_segments":[],"categories_sizes":[],"default_left":[0,0,0,0,0,0,0],"id":44,"left_children":[1,3,5,-1,-1,-1,-1],"loss_changes":[8.393907E1,1.4867046E1,5.815464E0,0E0,0E0,0E0,0E0],"parents":[2147483647,0,0,1,1,2,2],"right_children":[2,4,6,-1,-1,-1,-1],"split_conditions":[-5.6033087E-1,-1.8371252E0,-1.2861525E0,-7.813103E-3,-2.051178E-3,1.0955862E-2,5.413251E-3],"split_indices":[2,2,1,0,0,0,0],"split_type":[0,0,0,0,0,0,0],"sum_hessian":[7.7292737E2,5.0627066E2,2.666567E2,1.16876656E2,3.8939398E2,4.706809E1,2.1958861E2],"tree_param":{"num_deleted":"0","num_feature":"12","num_nodes":"7","size_leaf_vector":"1"}},{"base_weights":[-4.2419732E-4,-2.4623606E-1,3.756109E-1,-6.107226E-3,-1.0993113E-3,9.368875E-3,2.7531863E-3],"categories":[],"categories_nodes":[],"categories_segments":[],"categories_sizes":[],"default_left":[0,0,0,0,0,0,0],"id":45,"left_children":[1,3,5,-1,-1,-1,-1],"loss_changes":[7.874205E1,1.5972273E1,1.72738E1,0E0,0E0,0E0,0E0],"parents":[2147483647,0,0,1,1,2,2],"right_children":[2,4,6,-1,-1,-1,-1],"split_conditions":[-1.7716527E-2,-7.572369E-1,-1.8962294E0,-6.107226E-3,-1.0993113E-3,9.368875E-3,2.7531863E-3],"split_indices":[0,0,2,0,0,0,0],"split_type":[0,0,0,0,0,0,0],"sum_hessian":[8.498737E2,5.141331E2,3.3574054E2,2.4516492E2,2.6896823E2,1.2977684E2,2.0596371E2],"tree_param":{"num_deleted":"0","num_feature":"12","num_nodes":"7","size_leaf_vector":"1"}},{"base_weights":[6.839696E-4,-3.7646762E-1,3.9454013E-2,-4.3085804E-3,-8.52889E-3,-7.381143E-5,3.6137197E-3],"categories":[],"categories_nodes":[],"categories_segments":[],"categories_sizes":[],"default_left":[0,0,0,0,0,0,0],"id":46,"left_children":[1,3,5,-1,-1,-1,-1],"loss_changes":[9.609669E0,8.197861E-1,5.727402E0,0E0,0E0,0E0,0E0],"parents":[2147483647,0,0,1,1,2,2],"right_children":[2,4,6,-1,-1,-1,-1],"split_conditions":[-1.5912533E0,7.7958E-1,-8.378549E-1,-4.3085804E-3,-8.52889E-3,-7.381143E-5,3.6137197E-3],"split_indices":[1,10,1,0,0,0,0],"split_type":[0,0,0,0,0,0,0],"sum_hessian":[6.551822E2,6.0260742E1,5.9492145E2,4.726931E1,1.299143E1,4.9348636E2,1.0143512E2],"tree_param":{"num_deleted":"0","num_feature":"12","num_nodes":"7","size_leaf_vector":"1"}},{"base_weights":[-1.1362967E-4,-2.3710433E-1,4.4699544E-1,-9.861744E-4,-5.826696E-3,3.7482015E-3,8.04473E-3],"categories":[],"categories_nodes":[],"categories_segments":[],"categories_sizes":[],"default_left":[0,0,0,0,0,0,0],"id":47,"left_children":[1,3,5,-1,-1,-1,-1],"loss_changes":[8.2077484E1,1.4690802E1,5.7324944E0,0E0,0E0,0E0,0E0],"parents":[2147483647,0,0,1,1,2,2],"right_children":[2,4,6,-1,-1,-1,-1],"split_conditions":[-5.6033087E-1,9.5172E-2,-1.6511406E-1,-9.861744E-4,-5.826696E-3,3.7482015E-3,8.04473E-3],"split_indices":[2,0,2,0,0,0,0],"split_type":[0,0,0,0,0,0,0],"sum_hessian":[7.726029E2,5.052593E2,2.673436E2,2.576708E2,2.475885E2,1.0711048E2,1.6023312E2],"tree_param":{"num_deleted":"0","num_feature":"12","num_nodes":"7","size_leaf_vector":"1"}},{"base_weights":[-4.711663E-4,-2.4379683E-1,3.7106454E-1,-6.050788E-3,-1.0898595E-3,9.266368E-3,2.7133015E-3],"categories":[],"categories_nodes":[],"categories_segments":[],"categories_sizes":[],"default_left":[0,0,0,0,0,0,0],"id":48,"left_children":[1,3,5,-1,-1,-1,-1],"loss_changes":[7.697106E1,1.565226E1,1.6958595E1,0E0,0E0,0E0,0E0],"parents":[2147483647,0,0,1,1,2,2],"right_children":[2,4,6,-1,-1,-1,-1],"split_conditions":[-1.7716527E-2,-7.572369E-1,-1.8962294E0,-6.050788E-3,-1.0898595E-3,9.266368E-3,2.7133015E-3],"split_indices":[0,0,2,0,0,0,0],"split_type":[0,0,0,0,0,0,0],"sum_hessian":[8.4940985E2,5.1347156E2,3.3593826E2,2.445691E2,2.6890247E2,1.2984372E2,2.0609456E2],"tree_param":{"num_deleted":"0","num_feature":"12","num_nodes":"7","size_leaf_vector":"1"}},{"base_weights":[7.716233E-4,-3.7403247E-1,3.911573E-2,-4.273698E-3,-8.502594E-3,-5.4213157E-5,3.6657208E-3],"categories":[],"categories_nodes":[],"categories_segments":[],"categories_sizes":[],"default_left":[0,0,0,0,0,0,0],"id":49,"left_children":[1,3,5,-1,-1,-1,-1],"loss_changes":[9.443502E0,8.2021236E-1,5.610647E0,0E0,0E0,0E0,0E0],"parents":[2147483647,0,0,1,1,2,2],"right_children":[2,4,6,-1,-1,-1,-1],"split_conditions":[-1.5912533E0,7.7958E-1,-8.317021E-1,-4.273698E-3,-8.502594E-3,-5.4213157E-5,3.6657208E-3],"split_indices":[1,10,1,0,0,0,0],"split_type":[0,0,0,0,0,0,0],"sum_hessian":[6.5507996E2,5.9985172E1,5.950948E2,4.7076633E1,1.290854E1,4.9843747E2,9.66573E1],"tree_param":{"num_deleted":"0","num_feature":"12","num_nodes":"7","size_leaf_vector":"1"}},{"base_weights":[-1.3652857E-4,-2.3506568E-1,4.4109645E-1,-7.7211875E-3,-2.0134975E-3,1.069502E-2,5.263758E-3],"categories":[],"categories_nodes":[],"categories_segments":[],"categories_sizes":[],"default_left":[0,0,0,0,0,0,0],"id":50,"left_children":[1,3,5,-1,-1,-1,-1],"loss_changes":[8.025855E1,1.4471144E1,5.621853E0,0E0,0E0,0E0,0E0],"parents":[2147483647,0,0,1,1,2,2],"right_children":[2,4,6,-1,-1,-1,-1],"split_conditions":[-5.6033087E-1,-1.8371252E0,-1.2861525E0,-7.7211875E-3,-2.0134975E-3,1.069502E-2,5.263758E-3],"split_indices":[2,2,1,0,0,0,0],"split_type":[0,0,0,0,0,0,0],"sum_hessian":[7.722591E2,5.0424643E2,2.6801266E2,1.1571835E2,3.8852808E2,4.737522E1,2.2063744E2],"tree_param":{"num_deleted":"0","num_feature":"12","num_nodes":"7","size_leaf_vector":"1"}},{"base_weights":[-5.223253E-4,-2.4151413E-1,3.6682513E-1,-5.9958226E-3,-1.0833491E-3,9.157956E-3,2.6839683E-3],"categories":[],"categories_nodes":[],"categories_segments":[],"categories_sizes":[],"default_left":[0,0,0,0,0,0,0],"id":51,"left_children":[1,3,5,-1,-1,-1,-1],"loss_changes":[7.533024E1,1.5327143E1,1.655906E1,0E0,0E0,0E0,0E0],"parents":[2147483647,0,0,1,1,2,2],"right_children":[2,4,6,-1,-1,-1,-1],"split_conditions":[-1.7716527E-2,-7.572369E-1,-1.8962294E0,-5.9958226E-3,-1.0833491E-3,9.157956E-3,2.6839683E-3],"split_indices":[0,0,2,0,0,0,0],"split_type":[0,0,0,0,0,0,0],"sum_hessian":[8.489217E2,5.1283075E2,3.3609097E2,2.4397594E2,2.688548E2,1.299013E2,2.0618967E2],"tree_param":{"num_deleted":"0","num_feature":"12","num_nodes":"7","size_leaf_vector":"1"}},{"base_weights":[8.652522E-4,-3.717076E-1,3.8807068E-2,-4.2406614E-3,-8.47715E-3,-5.2555446E-5,3.6231359E-3],"categories":[],"categories_nodes":[],"categories_segments":[],"categories_sizes":[],"default_left":[0,0,0,0,0,0,0],"id":52,"left_children":[1,3,5,-1,-1,-1,-1],"loss_changes":[9.287315E0,8.202343E-1,5.488231E0,0E0,0E0,0E0,0E0],"parents":[2147483647,0,0,1,1,2,2],"right_children":[2,4,6,-1,-1,-1,-1],"split_conditions":[-1.5912533E0,7.7958E-1,-8.317021E-1,-4.2406614E-3,-8.47715E-3,-5.2555446E-5,3.6231359E-3],"split_indices":[1,10,1,0,0,0,0],"split_type":[0,0,0,0,0,0,0],"sum_hessian":[6.549729E2,5.9722828E1,5.9525006E2,4.689488E1,1.282795E1,4.983715E2,9.687856E1],"tree_param":{"num_deleted":"0","num_feature":"12","num_nodes":"7","size_leaf_vector":"1"}},{"base_weights":[-1.599904E-4,-2.33048E-1,4.3531862E-1,-9.649805E-4,-5.7457853E-3,7.930658E-3,3.7567376E-3],"categories":[],"categories_nodes":[],"categories_segments":[],"categories_sizes":[],"default_left":[0,0,0,0,0,0,0],"id":53,"left_children":[1,3,5,-1,-1,-1,-1],"loss_changes":[7.8487274E1,1.4272013E1,5.5337296E0,0E0,0E0,0E0,0E0],"parents":[2147483647,0,0,1,1,2,2],"right_children":[2,4,6,-1,-1,-1,-1],"split_conditions":[-5.6033087E-1,9.5172E-2,-1.061465E0,-9.649805E-4,-5.7457853E-3,7.930658E-3,3.7567376E-3],"split_indices":[2,0,0,0,0,0,0],"split_type":[0,0,0,0,0,0,0],"sum_hessian":[7.7190045E2,5.0323962E2,2.6866083E2,2.5738278E2,2.4585681E2,1.5452858E2,1.14132256E2],"tree_param":{"num_deleted":"0","num_feature":"12","num_nodes":"7","size_leaf_vector":"1"}},{"base_weights":[-5.735478E-4,3.045185E-1,-2.8474727E-1,9.059429E-3,2.0920513E-3,-7.3253247E-3,-2.5736704E-3],"categories":[],"categories_nodes":[],"categories_segments":[],"categories_sizes":[],"default_left":[0,0,0,0,0,0,0],"id":54,"left_children":[1,3,5,-1,-1,-1,-1],"loss_changes":[7.373029E1,2.141537E1,1.0441994E1,0E0,0E0,0E0,0E0],"parents":[2147483647,0,0,1,1,2,2],"right_children":[2,4,6,-1,-1,-1,-1],"split_conditions":[-1.0058922E0,-1.8962294E0,-1.146851E0,9.059429E-3,2.0920513E-3,-7.3253247E-3,-2.5736704E-3],"split_indices":[2,2,0,0,0,0,0],"split_type":[0,0,0,0,0,0,0],"sum_hessian":[8.484154E2,4.0911423E2,4.3930115E2,1.2994144E2,2.791728E2,1.3443513E2,3.0486603E2],"tree_param":{"num_deleted":"0","num_feature":"12","num_nodes":"7","size_leaf_vector":"1"}},{"base_weights":[9.611257E-4,-3.69282E-1,3.848472E-2,-4.2058746E-3,-8.451357E-3,-6.980645E-5,3.494544E-3],"categories":[],"categories_nodes":[],"categories_segments":[],"categories_sizes":[],"default_left":[0,0,0,0,0,0,0],"id":55,"left_children":[1,3,5,-1,-1,-1,-1],"loss_changes":[9.125991E0,8.207474E-1,5.379111E0,0E0,0E0,0E0,0E0],"parents":[2147483647,0,0,1,1,2,2],"right_children":[2,4,6,-1,-1,-1,-1],"split_conditions":[-1.5912533E0,7.7958E-1,-8.378549E-1,-4.2058746E-3,-8.451357E-3,-6.980645E-5,3.494544E-3],"split_indices":[1,10,1,0,0,0,0],"split_type":[0,0,0,0,0,0,0],"sum_hessian":[6.548609E2,5.9448147E1,5.954128E2,4.6703064E1,1.2745083E1,4.9332327E2,1.0208949E2],"tree_param":{"num_deleted":"0","num_feature":"12","num_nodes":"7","size_leaf_vector":"1"}},{"base_weights":[-1.8531678E-4,-2.3104717E-1,4.2963514E-1,-7.6313135E-3,-1.9765522E-3,1.0444693E-2,5.119742E-3],"categories":[],"categories_nodes":[],"categories_segments":[],"categories_sizes":[],"default_left":[0,0,0,0,0,0,0],"id":56,"left_children":[1,3,5,-1,-1,-1,-1],"loss_changes":[7.6756195E1,1.4088495E1,5.437973E0,0E0,0E0,0E0,0E0],"parents":[2147483647,0,0,1,1,2,2],"right_children":[2,4,6,-1,-1,-1,-1],"split_conditions":[-5.6033087E-1,-1.8371252E0,-1.2861525E0,-7.6313135E-3,-1.9765522E-3,1.0444693E-2,5.119742E-3],"split_indices":[2,2,1,0,0,0,0],"split_type":[0,0,0,0,0,0,0],"sum_hessian":[7.715243E2,5.0223187E2,2.6929245E2,1.1455877E2,3.876731E2,4.7661255E1,2.2163118E2],"tree_param":{"num_deleted":"0","num_feature":"12","num_nodes":"7","size_leaf_vector":"1"}},{"base_weights":[-6.3047453E-4,3.010377E-1,-2.8212553E-1,8.955024E-3,2.0688968E-3,-7.2665047E-3,-2.549238E-3],"categories":[],"categories_nodes":[],"categories_segments":[],"categories_sizes":[],"default_left":[0,0,0,0,0,0,0],"id":57,"left_children":[1,3,5,-1,-1,-1,-1],"loss_changes":[7.217221E1,2.092461E1,1.0267868E1,0E0,0E0,0E0,0E0],"parents":[2147483647,0,0,1,1,2,2],"right_children":[2,4,6,-1,-1,-1,-1],"split_conditions":[-1.0058922E0,-1.8962294E0,-1.146851E0,8.955024E-3,2.0688968E-3,-7.2665047E-3,-2.549238E-3],"split_indices":[2,2,0,0,0,0,0],"split_type":[0,0,0,0,0,0,0],"sum_hessian":[8.4790356E2,4.092527E2,4.3865088E2,1.2997105E2,2.7928162E2,1.3403467E2,3.0461618E2],"tree_param":{"num_deleted":"0","num_feature":"12","num_nodes":"7","size_leaf_vector":"1"}},{"base_weights":[1.0619612E-3,-3.6699918E-1,3.8196016E-2,-4.1734315E-3,-8.426701E-3,-5.0260707E-5,3.545638E-3],"categories":[],"categories_nodes":[],"categories_segments":[],"categories_sizes":[],"default_left":[0,0,0,0,0,0,0],"id":58,"left_children":[1,3,5,-1,-1,-1,-1],"loss_changes":[8.976504E0,8.2080173E-1,5.270443E0,0E0,0E0,0E0,0E0],"parents":[2147483647,0,0,1,1,2,2],"right_children":[2,4,6,-1,-1,-1,-1],"split_conditions":[-1.5912533E0,7.7958E-1,-8.317021E-1,-4.1734315E-3,-8.426701E-3,-5.0260707E-5,3.545638E-3],"split_indices":[1,10,1,0,0,0,0],"split_type":[0,0,0,0,0,0,0],"sum_hessian":[6.5474677E2,5.9190083E1,5.9555664E2,4.652468E1,1.26654E1,4.9827475E2,9.728191E1],"tree_param":{"num_deleted":"0","num_feature":"12","num_nodes":"7","size_leaf_vector":"1"}},{"base_weights":[-2.0870577E-4,-2.2911789E-1,4.2421955E-1,-9.4458746E-4,-5.6673097E-3,3.5332344E-3,7.6455525E-3],"categories":[],"categories_nodes":[],"categories_segments":[],"categories_sizes":[],"default_left":[0,0,0,0,0,0,0],"id":59,"left_children":[1,3,5,-1,-1,-1,-1],"loss_changes":[7.511477E1,1.3870928E1,5.3020477E0,0E0,0E0,0E0,0E0],"parents":[2147483647,0,0,1,1,2,2],"right_children":[2,4,6,-1,-1,-1,-1],"split_conditions":[-5.6033087E-1,9.5172E-2,-1.6511406E-1,-9.4458746E-4,-5.6673097E-3,3.5332344E-3,7.6455525E-3],"split_indices":[2,0,2,0,0,0,0],"split_type":[0,0,0,0,0,0,0],"sum_hessian":[7.71139E2,5.0125473E2,2.6988425E2,2.57105E2,2.4414972E2,1.07904564E2,1.6197968E2],"tree_param":{"num_deleted":"0","num_feature":"12","num_nodes":"7","size_leaf_vector":"1"}},{"base_weights":[-6.8688375E-4,-2.3477641E-1,3.5439122E-1,-5.8417893E-3,-1.0554985E-3,8.860192E-3,2.586986E-3],"categories":[],"categories_nodes":[],"categories_segments":[],"categories_sizes":[],"default_left":[0,0,0,0,0,0,0],"id":60,"left_children":[1,3,5,-1,-1,-1,-1],"loss_changes":[7.0600235E1,1.4490696E1,1.5563667E1,0E0,0E0,0E0,0E0],"parents":[2147483647,0,0,1,1,2,2],"right_children":[2,4,6,-1,-1,-1,-1],"split_conditions":[-1.7716527E-2,-7.572369E-1,-1.8962294E0,-5.8417893E-3,-1.0554985E-3,8.860192E-3,2.586986E-3],"split_indices":[0,0,2,0,0,0,0],"split_type":[0,0,0,0,0,0,0],"sum_hessian":[8.4737555E2,5.108984E2,3.3647714E2,2.4224564E2,2.6865277E2,1.2998596E2,2.064912E2],"tree_param":{"num_deleted":"0","num_feature":"12","num_nodes":"7","size_leaf_vector":"1"}},{"base_weights":[1.1643474E-3,-3.6462167E-1,3.789403E-2,-4.139334E-3,-8.401747E-3,-4.9360104E-5,3.5090437E-3],"categories":[],"categories_nodes":[],"categories_segments":[],"categories_sizes":[],"default_left":[0,0,0,0,0,0,0],"id":61,"left_children":[1,3,5,-1,-1,-1,-1],"loss_changes":[8.822315E0,8.213291E-1,5.169401E0,0E0,0E0,0E0,0E0],"parents":[2147483647,0,0,1,1,2,2],"right_children":[2,4,6,-1,-1,-1,-1],"split_conditions":[-1.5912533E0,7.7958E-1,-8.317021E-1,-4.139334E-3,-8.401747E-3,-4.9360104E-5,3.5090437E-3],"split_indices":[1,10,1,0,0,0,0],"split_type":[0,0,0,0,0,0,0],"sum_hessian":[6.546281E2,5.8920414E1,5.957077E2,4.63368E1,1.2583613E1,4.9823505E2,9.7472694E1],"tree_param":{"num_deleted":"0","num_feature":"12","num_nodes":"7","size_leaf_vector":"1"}},{"base_weights":[-2.3408173E-4,-2.2720449E-1,4.1888958E-1,-7.543621E-3,-1.9422357E-3,1.0191282E-2,4.9884627E-3],"categories":[],"categories_nodes":[],"categories_segments":[],"categories_sizes":[],"default_left":[0,0,0,0,0,0,0],"id":62,"left_children":[1,3,5,-1,-1,-1,-1],"loss_changes":[7.3509476E1,1.3710796E1,5.2212715E0,0E0,0E0,0E0,0E0],"parents":[2147483647,0,0,1,1,2,2],"right_children":[2,4,6,-1,-1,-1,-1],"split_conditions":[-5.6033087E-1,-1.8371252E0,-1.2861525E0,-7.543621E-3,-1.9422357E-3,1.0191282E-2,4.9884627E-3],"split_indices":[2,2,1,0,0,0,0],"split_type":[0,0,0,0,0,0,0],"sum_hessian":[7.7073694E2,5.00277E2,2.7045993E2,1.1340212E2,3.8687488E2,4.7940926E1,2.22519E2],"tree_param":{"num_deleted":"0","num_feature":"12","num_nodes":"7","size_leaf_vector":"1"}},{"base_weights":[-7.449591E-4,2.9425618E-1,-2.7699652E-1,8.759587E-3,2.0206317E-3,-7.1558524E-3,-2.49905E-3],"categories":[],"categories_nodes":[],"categories_segments":[],"categories_sizes":[],"default_left":[0,0,0,0,0,0,0],"id":63,"left_children":[1,3,5,-1,-1,-1,-1],"loss_changes":[6.9173256E1,2.0046528E1,9.961494E0,0E0,0E0,0E0,0E0],"parents":[2147483647,0,0,1,1,2,2],"right_children":[2,4,6,-1,-1,-1,-1],"split_conditions":[-1.0058922E0,-1.8962294E0,-1.146851E0,8.759587E-3,2.0206317E-3,-7.1558524E-3,-2.49905E-3],"split_indices":[2,2,0,0,0,0,0],"split_type":[0,0,0,0,0,0,0],"sum_hessian":[8.4680853E2,4.0947583E2,4.3733267E2,1.2998909E2,2.7948672E2,1.3325949E2,3.040732E2],"tree_param":{"num_deleted":"0","num_feature":"12","num_nodes":"7","size_leaf_vector":"1"}},{"base_weights":[1.2722703E-3,-3.6231264E-1,3.7613653E-2,-4.106446E-3,-8.377236E-3,-6.518983E-5,3.3828067E-3],"categories":[],"categories_nodes":[],"categories_segments":[],"categories_sizes":[],"default_left":[0,0,0,0,0,0,0],"id":64,"left_children":[1,3,5,-1,-1,-1,-1],"loss_changes":[8.674907E0,8.215232E-1,5.058141E0,0E0,0E0,0E0,0E0],"parents":[2147483647,0,0,1,1,2,2],"right_children":[2,4,6,-1,-1,-1,-1],"split_conditions":[-1.5912533E0,7.7958E-1,-8.378549E-1,-4.106446E-3,-8.377236E-3,-6.518983E-5,3.3828067E-3],"split_indices":[1,10,1,0,0,0,0],"split_type":[0,0,0,0,0,0,0],"sum_hessian":[6.5450305E2,5.8659748E1,5.958433E2,4.615662E1,1.2503128E1,4.9313846E2,1.0270487E2],"tree_param":{"num_deleted":"0","num_feature":"12","num_nodes":"7","size_leaf_vector":"1"}},{"base_weights":[-2.6240593E-4,-2.2525777E-1,4.1350847E-1,-7.4967886E-3,-1.9260853E-3,1.0063993E-2,4.9228915E-3],"categories":[],"categories_nodes":[],"categories_segments":[],"categories_sizes":[],"default_left":[0,0,0,0,0,0,0],"id":65,"left_children":[1,3,5,-1,-1,-1,-1],"loss_changes":[7.190011E1,1.3500694E1,5.1123734E0,0E0,0E0,0E0,0E0],"parents":[2147483647,0,0,1,1,2,2],"right_children":[2,4,6,-1,-1,-1,-1],"split_conditions":[-5.6033087E-1,-1.8371252E0,-1.2861525E0,-7.4967886E-3,-1.9260853E-3,1.0063993E-2,4.9228915E-3],"split_indices":[2,2,1,0,0,0,0],"split_type":[0,0,0,0,0,0,0],"sum_hessian":[7.703172E2,4.992802E2,2.71037E2,1.1277498E2,3.8650522E2,4.8077267E1,2.2295973E2],"tree_param":{"num_deleted":"0","num_feature":"12","num_nodes":"7","size_leaf_vector":"1"}},{"base_weights":[-8.064546E-4,2.9091558E-1,-2.744592E-1,8.660835E-3,1.9982972E-3,-7.0992173E-3,-2.4753816E-3],"categories":[],"categories_nodes":[],"categories_segments":[],"categories_sizes":[],"default_left":[0,0,0,0,0,0,0],"id":66,"left_children":[1,3,5,-1,-1,-1,-1],"loss_changes":[6.7715485E1,1.9595695E1,9.797806E0,0E0,0E0,0E0,0E0],"parents":[2147483647,0,0,1,1,2,2],"right_children":[2,4,6,-1,-1,-1,-1],"split_conditions":[-1.0058922E0,-1.8962294E0,-1.146851E0,8.660835E-3,1.9982972E-3,-7.0992173E-3,-2.4753816E-3],"split_indices":[2,2,0,0,0,0,0],"split_type":[0,0,0,0,0,0,0],"sum_hessian":[8.462402E2,4.0956674E2,4.3667346E2,1.2997906E2,2.7958768E2,1.3284953E2,3.038239E2],"tree_param":{"num_deleted":"0","num_feature":"12","num_nodes":"7","size_leaf_vector":"1"}},{"base_weights":[1.3827452E-3,-3.6004034E-1,3.734451E-2,-4.074099E-3,-8.353246E-3,-4.602874E-5,3.4323097E-3],"categories":[],"categories_nodes":[],"categories_segments":[],"categories_sizes":[],"default_left":[0,0,0,0,0,0,0],"id":67,"left_children":[1,3,5,-1,-1,-1,-1],"loss_changes":[8.53164E0,8.216982E-1,4.9559126E0,0E0,0E0,0E0,0E0],"parents":[2147483647,0,0,1,1,2,2],"right_children":[2,4,6,-1,-1,-1,-1],"split_conditions":[-1.5912533E0,7.7958E-1,-8.317021E-1,-4.074099E-3,-8.353246E-3,-4.602874E-5,3.4323097E-3],"split_indices":[1,10,1,0,0,0,0],"split_type":[0,0,0,0,0,0,0],"sum_hessian":[6.5437616E2,5.8402943E1,5.959732E2,4.5979397E1,1.2423547E1,4.981002E2,9.7873024E1],"tree_param":{"num_deleted":"0","num_feature":"12","num_nodes":"7","size_leaf_vector":"1"}},{"base_weights":[-2.8921894E-4,-2.2337882E-1,4.0836883E-1,-9.114812E-4,-5.5553787E-3,7.4481633E-3,3.5038933E-3],"categories":[],"categories_nodes":[],"categories_segments":[],"categories_sizes":[],"default_left":[0,0,0,0,0,0,0],"id":68,"left_children":[1,3,5,-1,-1,-1,-1],"loss_changes":[7.037105E1,1.33307E1,4.995865E0,0E0,0E0,0E0,0E0],"parents":[2147483647,0,0,1,1,2,2],"right_children":[2,4,6,-1,-1,-1,-1],"split_conditions":[-5.6033087E-1,9.5172E-2,-1.061465E0,-9.114812E-4,-5.5553787E-3,7.4481633E-3,3.5038933E-3],"split_indices":[2,0,0,0,0,0,0],"split_type":[0,0,0,0,0,0,0],"sum_hessian":[7.69888E2,4.9831006E2,2.7157794E2,2.566527E2,2.4165735E2,1.5648083E2,1.1509711E2],"tree_param":{"num_deleted":"0","num_feature":"12","num_nodes":"7","size_leaf_vector":"1"}},{"base_weights":[-8.6752756E-4,-2.2837839E-1,3.4270152E-1,-5.6937644E-3,-1.0310602E-3,8.571159E-3,2.5029378E-3],"categories":[],"categories_nodes":[],"categories_segments":[],"categories_sizes":[],"default_left":[0,0,0,0,0,0,0],"id":69,"left_children":[1,3,5,-1,-1,-1,-1],"loss_changes":[6.625793E1,1.3695265E1,1.4568134E1,0E0,0E0,0E0,0E0],"parents":[2147483647,0,0,1,1,2,2],"right_children":[2,4,6,-1,-1,-1,-1],"split_conditions":[-1.7716527E-2,-7.572369E-1,-1.8962294E0,-5.6937644E-3,-1.0310602E-3,8.571159E-3,2.5029378E-3],"split_indices":[0,0,2,0,0,0,0],"split_type":[0,0,0,0,0,0,0],"sum_hessian":[8.456588E2,5.0896097E2,3.3669785E2,2.4049425E2,2.684667E2,1.2995833E2,2.0673952E2],"tree_param":{"num_deleted":"0","num_feature":"12","num_nodes":"7","size_leaf_vector":"1"}},{"base_weights":[1.4945302E-3,-3.5767725E-1,3.706278E-2,-4.0401644E-3,-8.328987E-3,-6.237178E-5,3.3134446E-3],"categories":[],"categories_nodes":[],"categories_segments":[],"categories_sizes":[],"default_left":[0,0,0,0,0,0,0],"id":70,"left_children":[1,3,5,-1,-1,-1,-1],"loss_changes":[8.384092E0,8.2232666E-1,4.863151E0,0E0,0E0,0E0,0E0],"parents":[2147483647,0,0,1,1,2,2],"right_children":[2,4,6,-1,-1,-1,-1],"split_conditions":[-1.5912533E0,7.7958E-1,-8.378549E-1,-4.0401644E-3,-8.328987E-3,-6.237178E-5,3.3134446E-3],"split_indices":[1,10,1,0,0,0,0],"split_type":[0,0,0,0,0,0,0],"sum_hessian":[6.5424567E2,5.813513E1,5.9611053E2,4.579314E1,1.2341992E1,4.9302298E2,1.0308754E2],"tree_param":{"num_deleted":"0","num_feature":"12","num_nodes":"7","size_leaf_vector":"1"}},{"base_weights":[-3.1768993E-4,-2.2151478E-1,4.0330753E-1,-7.411886E-3,-1.8926131E-3,9.825672E-3,4.798132E-3],"categories":[],"categories_nodes":[],"categories_segments":[],"categories_sizes":[],"default_left":[0,0,0,0,0,0,0],"id":71,"left_children":[1,3,5,-1,-1,-1,-1],"loss_changes":[6.887523E1,1.3142691E1,4.914055E0,0E0,0E0,0E0,0E0],"parents":[2147483647,0,0,1,1,2,2],"right_children":[2,4,6,-1,-1,-1,-1],"split_conditions":[-5.6033087E-1,-1.8371252E0,-1.2861525E0,-7.411886E-3,-1.8926131E-3,9.825672E-3,4.798132E-3],"split_indices":[2,2,1,0,0,0,0],"split_type":[0,0,0,0,0,0,0],"sum_hessian":[7.6944495E2,4.9734058E2,2.7210434E2,1.1162061E2,3.8571997E2,4.8324306E1,2.2378004E2],"tree_param":{"num_deleted":"0","num_feature":"12","num_nodes":"7","size_leaf_vector":"1"}},{"base_weights":[-9.297017E-4,2.843997E-1,-2.6949114E-1,8.47583E-3,1.9516207E-3,-6.992228E-3,-2.4269037E-3],"categories":[],"categories_nodes":[],"categories_segments":[],"categories_sizes":[],"default_left":[0,0,0,0,0,0,0],"id":72,"left_children":[1,3,5,-1,-1,-1,-1],"loss_changes":[6.490738E1,1.8789341E1,9.5072975E0,0E0,0E0,0E0,0E0],"parents":[2147483647,0,0,1,1,2,2],"right_children":[2,4,6,-1,-1,-1,-1],"split_conditions":[-1.0058922E0,-1.8962294E0,-1.146851E0,8.47583E-3,1.9516207E-3,-6.992228E-3,-2.4269037E-3],"split_indices":[2,2,0,0,0,0,0],"split_type":[0,0,0,0,0,0,0],"sum_hessian":[8.450399E2,4.097004E2,4.3533954E2,1.2992404E2,2.7977637E2,1.3205536E2,3.0328418E2],"tree_param":{"num_deleted":"0","num_feature":"12","num_nodes":"7","size_leaf_vector":"1"}},{"base_weights":[1.6109615E-3,-3.5538036E-1,3.6801003E-2,-4.007404E-3,-8.305145E-3,-4.3208667E-5,3.3599793E-3],"categories":[],"categories_nodes":[],"categories_segments":[],"categories_sizes":[],"default_left":[0,0,0,0,0,0,0],"id":73,"left_children":[1,3,5,-1,-1,-1,-1],"loss_changes":[8.24291E0,8.22629E-1,4.7590013E0,0E0,0E0,0E0,0E0],"parents":[2147483647,0,0,1,1,2,2],"right_children":[2,4,6,-1,-1,-1,-1],"split_conditions":[-1.5912533E0,7.7958E-1,-8.317021E-1,-4.007404E-3,-8.305145E-3,-4.3208667E-5,3.3599793E-3],"split_indices":[1,10,1,0,0,0,0],"split_type":[0,0,0,0,0,0,0],"sum_hessian":[6.54109E2,5.7876114E1,5.9623285E2,4.5614388E1,1.2261728E1,4.9798193E2,9.8250946E1],"tree_param":{"num_deleted":"0","num_feature":"12","num_nodes":"7","size_leaf_vector":"1"}},{"base_weights":[-3.490947E-4,-2.1961786E-1,3.9819366E-1,-8.9197775E-4,-5.4802555E-3,9.706252E-3,4.7356663E-3],"categories":[],"categories_nodes":[],"categories_segments":[],"categories_sizes":[],"default_left":[0,0,0,0,0,0,0],"id":74,"left_children":[1,3,5,-1,-1,-1,-1],"loss_changes":[6.737486E1,1.2960228E1,4.815262E0,0E0,0E0,0E0,0E0],"parents":[2147483647,0,0,1,1,2,2],"right_children":[2,4,6,-1,-1,-1,-1],"split_conditions":[-5.6033087E-1,9.5172E-2,-1.2861525E0,-8.9197775E-4,-5.4802555E-3,9.706252E-3,4.7356663E-3],"split_indices":[2,0,1,0,0,0,0],"split_type":[0,0,0,0,0,0,0],"sum_hessian":[7.6898474E2,4.963524E2,2.7263235E2,2.5638455E2,2.3996783E2,4.844379E1,2.2418855E2],"tree_param":{"num_deleted":"0","num_feature":"12","num_nodes":"7","size_leaf_vector":"1"}},{"base_weights":[-9.935021E-4,2.810695E-1,-2.6694068E-1,8.389296E-3,1.9243282E-3,-6.9376035E-3,-2.4020064E-3],"categories":[],"categories_nodes":[],"categories_segments":[],"categories_sizes":[],"default_left":[0,0,0,0,0,0,0],"id":75,"left_children":[1,3,5,-1,-1,-1,-1],"loss_changes":[6.3493816E1,1.8448338E1,9.361149E0,0E0,0E0,0E0,0E0],"parents":[2147483647,0,0,1,1,2,2],"right_children":[2,4,6,-1,-1,-1,-1],"split_conditions":[-1.0058922E0,-1.8962294E0,-1.146851E0,8.389296E-3,1.9243282E-3,-6.9376035E-3,-2.4020064E-3],"split_indices":[2,2,0,0,0,0,0],"split_type":[0,0,0,0,0,0,0],"sum_hessian":[8.444276E2,4.097698E2,4.3465784E2,1.2988155E2,2.7988824E2,1.3163759E2,3.0302026E2],"tree_param":{"num_deleted":"0","num_feature":"12","num_nodes":"7","size_leaf_vector":"1"}},{"base_weights":[1.7252056E-3,-3.5296214E-1,3.6517847E-2,-3.972604E-3,-8.280747E-3,-4.243798E-5,3.3268041E-3],"categories":[],"categories_nodes":[],"categories_segments":[],"categories_sizes":[],"default_left":[0,0,0,0,0,0,0],"id":76,"left_children":[1,3,5,-1,-1,-1,-1],"loss_changes":[8.095578E0,8.234129E-1,4.6712704E0,0E0,0E0,0E0,0E0],"parents":[2147483647,0,0,1,1,2,2],"right_children":[2,4,6,-1,-1,-1,-1],"split_conditions":[-1.5912533E0,7.7958E-1,-8.317021E-1,-3.972604E-3,-8.280747E-3,-4.243798E-5,3.3268041E-3],"split_indices":[1,10,1,0,0,0,0],"split_type":[0,0,0,0,0,0,0],"sum_hessian":[6.5397205E2,5.7603077E1,5.9636896E2,4.5424416E1,1.2178661E1,4.9794458E2,9.84244E1],"tree_param":{"num_deleted":"0","num_feature":"12","num_nodes":"7","size_leaf_vector":"1"}},{"base_weights":[-3.7691012E-4,-2.1778569E-1,3.9331034E-1,-7.3285927E-3,-1.8587556E-3,3.2468743E-3,7.1018795E-3],"categories":[],"categories_nodes":[],"categories_segments":[],"categories_sizes":[],"default_left":[0,0,0,0,0,0,0],"id":77,"left_children":[1,3,5,-1,-1,-1,-1],"loss_changes":[6.594923E1,1.2800194E1,4.7161484E0,0E0,0E0,0E0,0E0],"parents":[2147483647,0,0,1,1,2,2],"right_children":[2,4,6,-1,-1,-1,-1],"split_conditions":[-5.6033087E-1,-1.8371252E0,-1.6511406E-1,-7.3285927E-3,-1.8587556E-3,3.2468743E-3,7.1018795E-3],"split_indices":[2,2,2,0,0,0,0],"split_type":[0,0,0,0,0,0,0],"sum_hessian":[7.685145E2,4.9538904E2,2.731255E2,1.10468094E2,3.8492093E2,1.0893168E2,1.641938E2],"tree_param":{"num_deleted":"0","num_feature":"12","num_nodes":"7","size_leaf_vector":"1"}},{"base_weights":[-1.0594038E-3,-2.221818E-1,3.3148724E-1,-5.550561E-3,-1.0072591E-3,8.29721E-3,2.4217365E-3],"categories":[],"categories_nodes":[],"categories_segments":[],"categories_sizes":[],"default_left":[0,0,0,0,0,0,0],"id":78,"left_children":[1,3,5,-1,-1,-1,-1],"loss_changes":[6.21942E1,1.2948025E1,1.3654758E1,0E0,0E0,0E0,0E0],"parents":[2147483647,0,0,1,1,2,2],"right_children":[2,4,6,-1,-1,-1,-1],"split_conditions":[-1.7716527E-2,-7.572369E-1,-1.8962294E0,-5.550561E-3,-1.0072591E-3,8.29721E-3,2.4217365E-3],"split_indices":[0,0,2,0,0,0,0],"split_type":[0,0,0,0,0,0,0],"sum_hessian":[8.437924E2,5.070009E2,3.3679153E2,2.38721E2,2.682799E2,1.2982443E2,2.069671E2],"tree_param":{"num_deleted":"0","num_feature":"12","num_nodes":"7","size_leaf_vector":"1"}},{"base_weights":[1.8485469E-3,-3.507749E-1,3.628645E-2,-3.941481E-3,-8.258245E-3,-4.0296443E-5,3.290562E-3],"categories":[],"categories_nodes":[],"categories_segments":[],"categories_sizes":[],"default_left":[0,0,0,0,0,0,0],"id":79,"left_children":[1,3,5,-1,-1,-1,-1],"loss_changes":[7.9647293E0,8.2361174E-1,4.5725603E0,0E0,0E0,0E0,0E0],"parents":[2147483647,0,0,1,1,2,2],"right_children":[2,4,6,-1,-1,-1,-1],"split_conditions":[-1.5912533E0,7.7958E-1,-8.317021E-1,-3.941481E-3,-8.258245E-3,-4.0296443E-5,3.290562E-3],"split_indices":[1,10,1,0,0,0,0],"split_type":[0,0,0,0,0,0,0],"sum_hessian":[6.538299E2,5.735575E1,5.964741E2,4.5254475E1,1.2101276E1,4.9786014E2,9.8614E1],"tree_param":{"num_deleted":"0","num_feature":"12","num_nodes":"7","size_leaf_vector":"1"}},{"base_weights":[-4.102228E-4,-2.1597154E-1,3.884982E-1,-8.732131E-4,-5.407289E-3,9.48299E-3,4.6167183E-3],"categories":[],"categories_nodes":[],"categories_segments":[],"categories_sizes":[],"default_left":[0,0,0,0,0,0,0],"id":80,"left_children":[1,3,5,-1,-1,-1,-1],"loss_changes":[6.455494E1,1.26047325E1,4.636181E0,0E0,0E0,0E0,0E0],"parents":[2147483647,0,0,1,1,2,2],"right_children":[2,4,6,-1,-1,-1,-1],"split_conditions":[-5.6033087E-1,9.5172E-2,-1.2861525E0,-8.732131E-4,-5.407289E-3,9.48299E-3,4.6167183E-3],"split_indices":[2,0,1,0,0,0,0],"split_type":[0,0,0,0,0,0,0],"sum_hessian":[7.6803564E2,4.944308E2,2.7360483E2,2.5612515E2,2.3830563E2,4.865872E1,2.2494612E2],"tree_param":{"num_deleted":"0","num_feature":"12","num_nodes":"7","size_leaf_vector":"1"}},{"base_weights":[-1.123244E-3,2.7481088E-1,-2.621296E-1,8.213627E-3,1.8793682E-3,-6.834871E-3,-2.3547823E-3],"categories":[],"categories_nodes":[],"categories_segments":[],"categories_sizes":[],"default_left":[0,0,0,0,0,0,0],"id":81,"left_children":[1,3,5,-1,-1,-1,-1],"loss_changes":[6.0867085E1,1.770253E1,9.090412E0,0E0,0E0,0E0,0E0],"parents":[2147483647,0,0,1,1,2,2],"right_children":[2,4,6,-1,-1,-1,-1],"split_conditions":[-1.0058922E0,-1.8962294E0,-1.146851E0,8.213627E-3,1.8793682E-3,-6.834871E-3,-2.3547823E-3],"split_indices":[2,2,0,0,0,0,0],"split_type":[0,0,0,0,0,0,0],"sum_hessian":[8.431346E2,4.0982138E2,4.3331323E2,1.2976149E2,2.8005988E2,1.3083437E2,3.0247888E2],"tree_param":{"num_deleted":"0","num_feature":"12","num_nodes":"7","size_leaf_vector":"1"}},{"base_weights":[1.967628E-3,-3.48337E-1,3.6010593E-2,-3.9063483E-3,-8.234041E-3,-5.581557E-5,3.1757262E-3],"categories":[],"categories_nodes":[],"categories_segments":[],"categories_sizes":[],"default_left":[0,0,0,0,0,0,0],"id":82,"left_children":[1,3,5,-1,-1,-1,-1],"loss_changes":[7.819922E0,8.2450104E-1,4.482768E0,0E0,0E0,0E0,0E0],"parents":[2147483647,0,0,1,1,2,2],"right_children":[2,4,6,-1,-1,-1,-1],"split_conditions":[-1.5912533E0,7.7958E-1,-8.378549E-1,-3.9063483E-3,-8.234041E-3,-5.581557E-5,3.1757262E-3],"split_indices":[1,10,1,0,0,0,0],"split_type":[0,0,0,0,0,0,0],"sum_hessian":[6.536843E2,5.7081295E1,5.966031E2,4.5063564E1,1.2017733E1,4.9275467E2,1.0384838E2],"tree_param":{"num_deleted":"0","num_feature":"12","num_nodes":"7","size_leaf_vector":"1"}},{"base_weights":[-4.4241914E-4,-2.1412164E-1,3.8363442E-1,-7.246919E-3,-1.8255053E-3,9.37075E-3,4.557179E-3],"categories":[],"categories_nodes":[],"categories_segments":[],"categories_sizes":[],"default_left":[0,0,0,0,0,0,0],"id":83,"left_children":[1,3,5,-1,-1,-1,-1],"loss_changes":[6.3155468E1,1.2468464E1,4.5462456E0,0E0,0E0,0E0,0E0],"parents":[2147483647,0,0,1,1,2,2],"right_children":[2,4,6,-1,-1,-1,-1],"split_conditions":[-5.6033087E-1,-1.8371252E0,-1.2861525E0,-7.246919E-3,-1.8255053E-3,9.37075E-3,4.557179E-3],"split_indices":[2,2,1,0,0,0,0],"split_type":[0,0,0,0,0,0,0],"sum_hessian":[7.675379E2,4.9345126E2,2.7408664E2,1.0931947E2,3.841318E2,4.8762383E1,2.2532423E2],"tree_param":{"num_deleted":"0","num_feature":"12","num_nodes":"7","size_leaf_vector":"1"}},{"base_weights":[-1.1916024E-3,2.7172646E-1,-2.597486E-1,8.1245415E-3,1.8586374E-3,-6.7821313E-3,-2.3325563E-3],"categories":[],"categories_nodes":[],"categories_segments":[],"categories_sizes":[],"default_left":[0,0,0,0,0,0,0],"id":84,"left_children":[1,3,5,-1,-1,-1,-1],"loss_changes":[5.9590054E1,1.731713E1,8.944841E0,0E0,0E0,0E0,0E0],"parents":[2147483647,0,0,1,1,2,2],"right_children":[2,4,6,-1,-1,-1,-1],"split_conditions":[-1.0058922E0,-1.8962294E0,-1.146851E0,8.1245415E-3,1.8586374E-3,-6.7821313E-3,-2.3325563E-3],"split_indices":[2,2,0,0,0,0,0],"split_type":[0,0,0,0,0,0,0],"sum_hessian":[8.4247156E2,4.0982874E2,4.3264282E2,1.2968283E2,2.801459E2,1.3041064E2,3.0223218E2],"tree_param":{"num_deleted":"0","num_feature":"12","num_nodes":"7","size_leaf_vector":"1"}},{"base_weights":[2.092567E-3,-3.460898E-1,3.5775777E-2,-3.8742898E-3,-8.211337E-3,-3.7409704E-5,3.2222068E-3],"categories":[],"categories_nodes":[],"categories_segments":[],"categories_sizes":[],"default_left":[0,0,0,0,0,0,0],"id":85,"left_children":[1,3,5,-1,-1,-1,-1],"loss_changes":[7.6887226E0,8.248577E-1,4.391962E0,0E0,0E0,0E0,0E0],"parents":[2147483647,0,0,1,1,2,2],"right_children":[2,4,6,-1,-1,-1,-1],"split_conditions":[-1.5912533E0,7.7958E-1,-8.317021E-1,-3.8742898E-3,-8.211337E-3,-3.7409704E-5,3.2222068E-3],"split_indices":[1,10,1,0,0,0,0],"split_type":[0,0,0,0,0,0,0],"sum_hessian":[6.5353674E2,5.6828392E1,5.967083E2,4.4889614E1,1.1938781E1,4.9773645E2,9.897187E1],"tree_param":{"num_deleted":"0","num_feature":"12","num_nodes":"7","size_leaf_vector":"1"}},{"base_weights":[-4.7466965E-4,-2.1233755E-1,3.7898555E-1,-7.2033135E-3,-1.8112015E-3,3.1146882E-3,6.850331E-3],"categories":[],"categories_nodes":[],"categories_segments":[],"categories_sizes":[],"default_left":[0,0,0,0,0,0,0],"id":86,"left_children":[1,3,5,-1,-1,-1,-1],"loss_changes":[6.1825512E1,1.2277796E1,4.45224E0,0E0,0E0,0E0,0E0],"parents":[2147483647,0,0,1,1,2,2],"right_children":[2,4,6,-1,-1,-1,-1],"split_conditions":[-5.6033087E-1,-1.8371252E0,-1.6511406E-1,-7.2033135E-3,-1.8112015E-3,3.1146882E-3,6.850331E-3],"split_indices":[2,2,2,0,0,0,0],"split_type":[0,0,0,0,0,0,0],"sum_hessian":[7.6703485E2,4.9249954E2,2.7453534E2,1.0869926E2,3.838003E2,1.0939159E2,1.6514375E2],"tree_param":{"num_deleted":"0","num_feature":"12","num_nodes":"7","size_leaf_vector":"1"}},{"base_weights":[-1.2605032E-3,-2.161772E-1,3.2071832E-1,-5.4119355E-3,-9.840224E-4,8.03699E-3,2.3432747E-3],"categories":[],"categories_nodes":[],"categories_segments":[],"categories_sizes":[],"default_left":[0,0,0,0,0,0,0],"id":87,"left_children":[1,3,5,-1,-1,-1,-1],"loss_changes":[5.8389484E1,1.2245913E1,1.2814304E1,0E0,0E0,0E0,0E0],"parents":[2147483647,0,0,1,1,2,2],"right_children":[2,4,6,-1,-1,-1,-1],"split_conditions":[-1.7716527E-2,-7.572369E-1,-1.8962294E0,-5.4119355E-3,-9.840224E-4,8.03699E-3,2.3432747E-3],"split_indices":[0,0,2,0,0,0,0],"split_type":[0,0,0,0,0,0,0],"sum_hessian":[8.4179346E2,5.0502466E2,3.367688E2,2.3693236E2,2.680923E2,1.2959354E2,2.0717528E2],"tree_param":{"num_deleted":"0","num_feature":"12","num_nodes":"7","size_leaf_vector":"1"}},{"base_weights":[2.22202E-3,-3.439146E-1,3.555983E-2,-3.8433115E-3,-8.189435E-3,-3.5175635E-5,3.1873633E-3],"categories":[],"categories_nodes":[],"categories_segments":[],"categories_sizes":[],"default_left":[0,0,0,0,0,0,0],"id":88,"left_children":[1,3,5,-1,-1,-1,-1],"loss_changes":[7.5634685E0,8.2513237E-1,4.2989993E0,0E0,0E0,0E0,0E0],"parents":[2147483647,0,0,1,1,2,2],"right_children":[2,4,6,-1,-1,-1,-1],"split_conditions":[-1.5912533E0,7.7958E-1,-8.317021E-1,-3.8433115E-3,-8.189435E-3,-3.5175635E-5,3.1873633E-3],"split_indices":[1,10,1,0,0,0,0],"split_type":[0,0,0,0,0,0,0],"sum_hessian":[6.5338544E2,5.658316E1,5.9680225E2,4.4721382E1,1.1861777E1,4.976479E2,9.9154366E1],"tree_param":{"num_deleted":"0","num_feature":"12","num_nodes":"7","size_leaf_vector":"1"}},{"base_weights":[-5.103338E-4,-2.1056953E-1,3.7440363E-1,-8.420331E-4,-5.3018704E-3,9.160388E-3,4.4437335E-3],"categories":[],"categories_nodes":[],"categories_segments":[],"categories_sizes":[],"default_left":[0,0,0,0,0,0,0],"id":89,"left_children":[1,3,5,-1,-1,-1,-1],"loss_changes":[6.0524395E1,1.2121151E1,4.382431E0,0E0,0E0,0E0,0E0],"parents":[2147483647,0,0,1,1,2,2],"right_children":[2,4,6,-1,-1,-1,-1],"split_conditions":[-5.6033087E-1,9.5172E-2,-1.2861525E0,-8.420331E-4,-5.3018704E-3,9.160388E-3,4.4437335E-3],"split_indices":[2,0,1,0,0,0,0],"split_type":[0,0,0,0,0,0,0],"sum_hessian":[7.665224E2,4.9155127E2,2.7497113E2,2.5569374E2,2.3585751E2,4.8948067E1,2.2602307E2],"tree_param":{"num_deleted":"0","num_feature":"12","num_nodes":"7","size_leaf_vector":"1"}},{"base_weights":[-1.326832E-3,2.6570556E-1,-2.5508386E-1,7.957554E-3,1.8151823E-3,-7.7107856E-3,-2.6075856E-3],"categories":[],"categories_nodes":[],"categories_segments":[],"categories_sizes":[],"default_left":[0,0,0,0,0,0,0],"id":90,"left_children":[1,3,5,-1,-1,-1,-1],"loss_changes":[5.7129345E1,1.6628555E1,8.790152E0,0E0,0E0,0E0,0E0],"parents":[2147483647,0,0,1,1,2,2],"right_children":[2,4,6,-1,-1,-1,-1],"split_conditions":[-1.0058922E0,-1.8962294E0,-1.1345798E0,7.957554E-3,1.8151823E-3,-7.7107856E-3,-2.6075856E-3],"split_indices":[2,2,1,0,0,0,0],"split_type":[0,0,0,0,0,0,0],"sum_hessian":[8.410961E2,4.09805E2,4.3129114E2,1.2950189E2,2.803031E2,8.42613E1,3.4702985E2],"tree_param":{"num_deleted":"0","num_feature":"12","num_nodes":"7","size_leaf_vector":"1"}},{"base_weights":[2.3466023E-3,-3.4149563E-1,3.5300635E-2,-3.8084327E-3,-8.16592E-3,-5.0076946E-5,3.0765801E-3],"categories":[],"categories_nodes":[],"categories_segments":[],"categories_sizes":[],"default_left":[0,0,0,0,0,0,0],"id":91,"left_children":[1,3,5,-1,-1,-1,-1],"loss_changes":[7.425143E0,8.260813E-1,4.214216E0,0E0,0E0,0E0,0E0],"parents":[2147483647,0,0,1,1,2,2],"right_children":[2,4,6,-1,-1,-1,-1],"split_conditions":[-1.5912533E0,7.7958E-1,-8.378549E-1,-3.8084327E-3,-8.16592E-3,-5.0076946E-5,3.0765801E-3],"split_indices":[1,10,1,0,0,0,0],"split_type":[0,0,0,0,0,0,0],"sum_hessian":[6.532314E2,5.631177E1,5.969196E2,4.453292E1,1.1778851E1,4.925227E2,1.0439689E2],"tree_param":{"num_deleted":"0","num_feature":"12","num_nodes":"7","size_leaf_vector":"1"}},{"base_weights":[-5.448052E-4,-2.0876622E-1,3.697704E-1,-7.123977E-3,-1.7787697E-3,9.054615E-3,4.386908E-3],"categories":[],"categories_nodes":[],"categories_segments":[],"categories_sizes":[],"default_left":[0,0,0,0,0,0,0],"id":92,"left_children":[1,3,5,-1,-1,-1,-1],"loss_changes":[5.921819E1,1.1962288E1,4.30019E0,0E0,0E0,0E0,0E0],"parents":[2147483647,0,0,1,1,2,2],"right_children":[2,4,6,-1,-1,-1,-1],"split_conditions":[-5.6033087E-1,-1.8371252E0,-1.2861525E0,-7.123977E-3,-1.7787697E-3,9.054615E-3,4.386908E-3],"split_indices":[2,2,1,0,0,0,0],"split_type":[0,0,0,0,0,0,0],"sum_hessian":[7.6599347E2,4.905836E2,2.7540985E2,1.07558395E2,3.8302518E2,4.903701E1,2.2637285E2],"tree_param":{"num_deleted":"0","num_feature":"12","num_nodes":"7","size_leaf_vector":"1"}},{"base_weights":[-1.3983464E-3,2.5265327E-1,-2.6283017E-1,7.87274E-3,1.6967362E-3,-2.6798456E-3,-7.4683884E-3],"categories":[],"categories_nodes":[],"categories_segments":[],"categories_sizes":[],"default_left":[0,0,0,0,0,0,0],"id":93,"left_children":[1,3,5,-1,-1,-1,-1],"loss_changes":[5.595018E1,1.7111118E1,7.99345E0,0E0,0E0,0E0,0E0],"parents":[2147483647,0,0,1,1,2,2],"right_children":[2,4,6,-1,-1,-1,-1],"split_conditions":[-9.742915E-1,-1.8962294E0,1.8199676E-1,7.87274E-3,1.6967362E-3,-2.6798456E-3,-7.4683884E-3],"split_indices":[2,2,2,0,0,0,0],"split_type":[0,0,0,0,0,0,0],"sum_hessian":[8.404055E2,4.2623584E2,4.1416968E2,1.29393E2,2.9684283E2,3.246748E2,8.949485E1],"tree_param":{"num_deleted":"0","num_feature":"12","num_nodes":"7","size_leaf_vector":"1"}},{"base_weights":[2.4743632E-3,-3.392839E-1,3.508144E-2,-3.776881E-3,-8.144016E-3,-3.2039734E-5,3.1214727E-3],"categories":[],"categories_nodes":[],"categories_segments":[],"categories_sizes":[],"default_left":[0,0,0,0,0,0,0],"id":94,"left_children":[1,3,5,-1,-1,-1,-1],"loss_changes":[7.3007646E0,8.2646847E-1,4.128412E0,0E0,0E0,0E0,0E0],"parents":[2147483647,0,0,1,1,2,2],"right_children":[2,4,6,-1,-1,-1,-1],"split_conditions":[-1.5912533E0,7.7958E-1,-8.317021E-1,-3.776881E-3,-8.144016E-3,-3.2039734E-5,3.1214727E-3],"split_indices":[1,10,1,0,0,0,0],"split_type":[0,0,0,0,0,0,0],"sum_hessian":[6.5307697E2,5.6063553E1,5.970134E2,4.436258E1,1.1700974E1,4.975138E2,9.949961E1],"tree_param":{"num_deleted":"0","num_feature":"12","num_nodes":"7","size_leaf_vector":"1"}},{"base_weights":[-5.7650806E-4,-2.0706385E-1,3.65437E-1,-8.2483003E-4,-5.2309167E-3,6.690666E-3,3.0924813E-3],"categories":[],"categories_nodes":[],"categories_segments":[],"categories_sizes":[],"default_left":[0,0,0,0,0,0,0],"id":95,"left_children":[1,3,5,-1,-1,-1,-1],"loss_changes":[5.8002872E1,1.1782581E1,4.2263145E0,0E0,0E0,0E0,0E0],"parents":[2147483647,0,0,1,1,2,2],"right_children":[2,4,6,-1,-1,-1,-1],"split_conditions":[-5.6033087E-1,9.5172E-2,-1.061465E0,-8.2483003E-4,-5.2309167E-3,6.690666E-3,3.0924813E-3],"split_indices":[2,0,0,0,0,0,0],"split_type":[0,0,0,0,0,0,0],"sum_hessian":[7.654644E2,4.8965738E2,2.7580704E2,2.5545369E2,2.3420369E2,1.5921341E2,1.16593636E2],"tree_param":{"num_deleted":"0","num_feature":"12","num_nodes":"7","size_leaf_vector":"1"}},{"base_weights":[-1.4688385E-3,-2.102575E-1,3.1019464E-1,-5.2805077E-3,-9.5553166E-4,7.795846E-3,2.2594174E-3],"categories":[],"categories_nodes":[],"categories_segments":[],"categories_sizes":[],"default_left":[0,0,0,0,0,0,0],"id":96,"left_children":[1,3,5,-1,-1,-1,-1],"loss_changes":[5.4771427E1,1.1632729E1,1.2104038E1,0E0,0E0,0E0,0E0],"parents":[2147483647,0,0,1,1,2,2],"right_children":[2,4,6,-1,-1,-1,-1],"split_conditions":[-1.7716527E-2,-7.572369E-1,-1.8962294E0,-5.2805077E-3,-9.5553166E-4,7.795846E-3,2.2594174E-3],"split_indices":[0,0,2,0,0,0,0],"split_type":[0,0,0,0,0,0,0],"sum_hessian":[8.3970526E2,5.0303735E2,3.366679E2,2.3517383E2,2.6786353E2,1.29284E2,2.0738393E2],"tree_param":{"num_deleted":"0","num_feature":"12","num_nodes":"7","size_leaf_vector":"1"}},{"base_weights":[2.603923E-3,-3.3699208E-1,3.4852743E-2,-3.7439263E-3,-8.121919E-3,-3.0749452E-5,3.0913919E-3],"categories":[],"categories_nodes":[],"categories_segments":[],"categories_sizes":[],"default_left":[0,0,0,0,0,0,0],"id":97,"left_children":[1,3,5,-1,-1,-1,-1],"loss_changes":[7.1731997E0,8.272495E-1,4.0518765E0,0E0,0E0,0E0,0E0],"parents":[2147483647,0,0,1,1,2,2],"right_children":[2,4,6,-1,-1,-1,-1],"split_conditions":[-1.5912533E0,7.7958E-1,-8.317021E-1,-3.7439263E-3,-8.121919E-3,-3.0749452E-5,3.0913919E-3],"split_indices":[1,10,1,0,0,0,0],"split_type":[0,0,0,0,0,0,0],"sum_hessian":[6.529203E2,5.5805984E1,5.971143E2,4.4184494E1,1.1621491E1,4.9745712E2,9.9657196E1],"tree_param":{"num_deleted":"0","num_feature":"12","num_nodes":"7","size_leaf_vector":"1"}},{"base_weights":[-6.1091455E-4,-2.0534903E-1,3.610993E-1,-7.0462073E-3,-1.7486616E-3,8.846654E-3,4.282675E-3],"categories":[],"categories_nodes":[],"categories_segments":[],"categories_sizes":[],"default_left":[0,0,0,0,0,0,0],"id":98,"left_children":[1,3,5,-1,-1,-1,-1],"loss_changes":[5.6795345E1,1.1649538E1,4.1251183E0,0E0,0E0,0E0,0E0],"parents":[2147483647,0,0,1,1,2,2],"right_children":[2,4,6,-1,-1,-1,-1],"split_conditions":[-5.6033087E-1,-1.8371252E0,-1.2861525E0,-7.0462073E-3,-1.7486616E-3,8.846654E-3,4.282675E-3],"split_indices":[2,2,1,0,0,0,0],"split_type":[0,0,0,0,0,0,0],"sum_hessian":[7.649243E2,4.8872473E2,2.7619962E2,1.06425415E2,3.8229932E2,4.9202557E1,2.2699706E2],"tree_param":{"num_deleted":"0","num_feature":"12","num_nodes":"7","size_leaf_vector":"1"}},{"base_weights":[-1.5389002E-3,2.4708359E-1,-2.5816184E-1,7.7136564E-3,1.6572298E-3,-7.6026553E-3,-2.682731E-3],"categories":[],"categories_nodes":[],"categories_segments":[],"categories_sizes":[],"default_left":[0,0,0,0,0,0,0],"id":99,"left_children":[1,3,5,-1,-1,-1,-1],"loss_changes":[5.3655445E1,1.6436878E1,7.8384323E0,0E0,0E0,0E0,0E0],"parents":[2147483647,0,0,1,1,2,2],"right_children":[2,4,6,-1,-1,-1,-1],"split_conditions":[-9.742915E-1,-1.8962294E0,-1.1345798E0,7.7136564E-3,1.6572298E-3,-7.6026553E-3,-2.682731E-3],"split_indices":[2,2,1,0,0,0,0],"split_type":[0,0,0,0,0,0,0],"sum_hessian":[8.389652E2,4.261439E2,4.128213E2,1.2915678E2,2.969871E2,8.0974594E1,3.318467E2],"tree_param":{"num_deleted":"0","num_feature":"12","num_nodes":"7","size_leaf_vector":"1"}},{"base_weights":[2.7373608E-3,-3.347371E-1,3.463767E-2,-3.7116944E-3,-8.099966E-3,-4.4205284E-5,2.9821494E-3],"categories":[],"categories_nodes":[],"categories_segments":[],"categories_sizes":[],"default_left":[0,0,0,0,0,0,0],"id":100,"left_children":[1,3,5,-1,-1,-1,-1],"loss_changes":[7.049648E0,8.2776546E-1,3.9639199E0,0E0,0E0,0E0,0E0],"parents":[2147483647,0,0,1,1,2,2],"right_children":[2,4,6,-1,-1,-1,-1],"split_conditions":[-1.5912533E0,7.7958E-1,-8.378549E-1,-3.7116944E-3,-8.099966E-3,-4.4205284E-5,2.9821494E-3],"split_indices":[1,10,1,0,0,0,0],"split_type":[0,0,0,0,0,0,0],"sum_hessian":[6.527577E2,5.555424E1,5.972034E2,4.4011593E1,1.1542647E1,4.9228403E2,1.04919395E2],"tree_param":{"num_deleted":"0","num_feature":"12","num_nodes":"7","size_leaf_vector":"1"}},{"base_weights":[-6.4931286E-4,-2.0359294E-1,3.5667774E-1,-7.0044133E-3,-1.7340962E-3,2.9029201E-3,6.463926E-3],"categories":[],"categories_nodes":[],"categories_segments":[],"categories_sizes":[],"default_left":[0,0,0,0,0,0,0],"id":101,"left_children":[1,3,5,-1,-1,-1,-1],"loss_changes":[5.557504E1,1.1476431E1,4.0787544E0,0E0,0E0,0E0,0E0],"parents":[2147483647,0,0,1,1,2,2],"right_children":[2,4,6,-1,-1,-1,-1],"split_conditions":[-5.6033087E-1,-1.8371252E0,-1.6511406E-1,-7.0044133E-3,-1.7340962E-3,2.9029201E-3,6.463926E-3],"split_indices":[2,2,2,0,0,0,0],"split_type":[0,0,0,0,0,0,0],"sum_hessian":[7.643686E2,4.8777014E2,2.7659845E2,1.0581156E2,3.819586E2,1.1010717E2,1.6649127E2],"tree_param":{"num_deleted":"0","num_feature":"12","num_nodes":"7","size_leaf_vector":"1"}},{"base_weights":[-1.6121216E-3,-2.0653003E-1,3.0362222E-1,-5.1931143E-3,-9.423676E-4,7.632751E-3,2.2155019E-3],"categories":[],"categories_nodes":[],"categories_segments":[],"categories_sizes":[],"default_left":[0,0,0,0,0,0,0],"id":102,"left_children":[1,3,5,-1,-1,-1,-1],"loss_changes":[5.2555305E1,1.1204193E1,1.1576181E1,0E0,0E0,0E0,0E0],"parents":[2147483647,0,0,1,1,2,2],"right_children":[2,4,6,-1,-1,-1,-1],"split_conditions":[-1.7716527E-2,-7.572369E-1,-1.8962294E0,-5.1931143E-3,-9.423676E-4,7.632751E-3,2.2155019E-3],"split_indices":[0,0,2,0,0,0,0],"split_type":[0,0,0,0,0,0,0],"sum_hessian":[8.382372E2,5.0172763E2,3.3650955E2,2.3397668E2,2.6775095E2,1.290205E2,2.0748907E2],"tree_param":{"num_deleted":"0","num_feature":"12","num_nodes":"7","size_leaf_vector":"1"}},{"base_weights":[2.8729842E-3,-3.3260712E-1,3.4446664E-2,-3.681366E-3,-8.079216E-3,-2.6231977E-5,3.0250812E-3],"categories":[],"categories_nodes":[],"categories_segments":[],"categories_sizes":[],"default_left":[0,0,0,0,0,0,0],"id":103,"left_children":[1,3,5,-1,-1,-1,-1],"loss_changes":[6.9345613E0,8.280878E-1,3.8809772E0,0E0,0E0,0E0,0E0],"parents":[2147483647,0,0,1,1,2,2],"right_children":[2,4,6,-1,-1,-1,-1],"split_conditions":[-1.5912533E0,7.7958E-1,-8.317021E-1,-3.681366E-3,-8.079216E-3,-2.6231977E-5,3.0250812E-3],"split_indices":[1,10,1,0,0,0,0],"split_type":[0,0,0,0,0,0,0],"sum_hessian":[6.525952E2,5.5315594E1,5.972796E2,4.3848465E1,1.1467132E1,4.9727472E2,1.0000493E2],"tree_param":{"num_deleted":"0","num_feature":"12","num_nodes":"7","size_leaf_vector":"1"}},{"base_weights":[-6.861891E-4,-2.0191738E-1,3.5249457E-1,-7.9545676E-4,-5.1300577E-3,6.4601954E-3,2.97217E-3],"categories":[],"categories_nodes":[],"categories_segments":[],"categories_sizes":[],"default_left":[0,0,0,0,0,0,0],"id":104,"left_children":[1,3,5,-1,-1,-1,-1],"loss_changes":[5.4427155E1,1.1334253E1,3.989109E0,0E0,0E0,0E0,0E0],"parents":[2147483647,0,0,1,1,2,2],"right_children":[2,4,6,-1,-1,-1,-1],"split_conditions":[-5.6033087E-1,9.5172E-2,-1.061465E0,-7.9545676E-4,-5.1300577E-3,6.4601954E-3,2.97217E-3],"split_indices":[2,0,0,0,0,0,0],"split_type":[0,0,0,0,0,0,0],"sum_hessian":[7.638125E2,4.8684946E2,2.7696307E2,2.5504376E2,2.3180568E2,1.59952E2,1.1701108E2],"tree_param":{"num_deleted":"0","num_feature":"12","num_nodes":"7","size_leaf_vector":"1"}},{"base_weights":[-1.68163E-3,2.4164885E-1,-2.535831E-1,7.559433E-3,1.6185931E-3,-8.6917225E-3,-2.8506506E-3],"categories":[],"categories_nodes":[],"categories_segments":[],"categories_sizes":[],"default_left":[0,0,0,0,0,0,0],"id":105,"left_children":[1,3,5,-1,-1,-1,-1],"loss_changes":[5.14564E1,1.5795107E1,7.680395E0,0E0,0E0,0E0,0E0],"parents":[2147483647,0,0,1,1,2,2],"right_children":[2,4,6,-1,-1,-1,-1],"split_conditions":[-9.742915E-1,-1.8962294E0,-1.6164873E0,7.559433E-3,1.6185931E-3,-8.6917225E-3,-2.8506506E-3],"split_indices":[2,2,0,0,0,0,0],"split_type":[0,0,0,0,0,0,0],"sum_hessian":[8.374838E2,4.260098E2,4.1147403E2,1.2888719E2,2.9712262E2,5.1345467E1,3.6012857E2],"tree_param":{"num_deleted":"0","num_feature":"12","num_nodes":"7","size_leaf_vector":"1"}},{"base_weights":[3.0069852E-3,-3.3028585E-1,3.4225386E-2,-3.6479395E-3,-8.057336E-3,-2.453415E-5,2.9936398E-3],"categories":[],"categories_nodes":[],"categories_segments":[],"categories_sizes":[],"default_left":[0,0,0,0,0,0,0],"id":106,"left_children":[1,3,5,-1,-1,-1,-1],"loss_changes":[6.81015E0,8.2899E-1,3.802194E0,0E0,0E0,0E0,0E0],"parents":[2147483647,0,0,1,1,2,2],"right_children":[2,4,6,-1,-1,-1,-1],"split_conditions":[-1.5912533E0,7.7958E-1,-8.317021E-1,-3.6479395E-3,-8.057336E-3,-2.453415E-5,2.9936398E-3],"split_indices":[1,10,1,0,0,0,0],"split_type":[0,0,0,0,0,0,0],"sum_hessian":[6.524293E2,5.5056557E1,5.973728E2,4.3669384E1,1.1387172E1,4.972027E2,1.0017009E2],"tree_param":{"num_deleted":"0","num_feature":"12","num_nodes":"7","size_leaf_vector":"1"}},{"base_weights":[-7.2600483E-4,-2.0018779E-1,3.481989E-1,-6.928612E-3,-1.7033404E-3,8.57728E-3,4.119697E-3],"categories":[],"categories_nodes":[],"categories_segments":[],"categories_sizes":[],"default_left":[0,0,0,0,0,0,0],"id":107,"left_children":[1,3,5,-1,-1,-1,-1],"loss_changes":[5.325876E1,1.1183718E1,3.95409E0,0E0,0E0,0E0,0E0],"parents":[2147483647,0,0,1,1,2,2],"right_children":[2,4,6,-1,-1,-1,-1],"split_conditions":[-5.6033087E-1,-1.8371252E0,-1.2861525E0,-6.928612E-3,-1.7033404E-3,8.57728E-3,4.119697E-3],"split_indices":[2,2,1,0,0,0,0],"split_type":[0,0,0,0,0,0,0],"sum_hessian":[7.632415E2,4.8590298E2,2.7733856E2,1.0468821E2,3.8121475E2,4.939725E1,2.2794131E2],"tree_param":{"num_deleted":"0","num_feature":"12","num_nodes":"7","size_leaf_vector":"1"}},{"base_weights":[-1.7567377E-3,2.3895904E-1,-2.513052E-1,7.4809357E-3,1.6006493E-3,-7.467052E-3,-2.6015316E-3],"categories":[],"categories_nodes":[],"categories_segments":[],"categories_sizes":[],"default_left":[0,0,0,0,0,0,0],"id":108,"left_children":[1,3,5,-1,-1,-1,-1],"loss_changes":[5.0383377E1,1.5463274E1,7.5993977E0,0E0,0E0,0E0,0E0],"parents":[2147483647,0,0,1,1,2,2],"right_children":[2,4,6,-1,-1,-1,-1],"split_conditions":[-9.742915E-1,-1.8962294E0,-1.1345798E0,7.4809357E-3,1.6006493E-3,-7.467052E-3,-2.6015316E-3],"split_indices":[2,2,1,0,0,0,0],"split_type":[0,0,0,0,0,0,0],"sum_hessian":[8.367413E2,4.2592966E2,4.108116E2,1.2873436E2,2.971953E2,8.013915E1,3.3067245E2],"tree_param":{"num_deleted":"0","num_feature":"12","num_nodes":"7","size_leaf_vector":"1"}},{"base_weights":[3.1411857E-3,-3.2812274E-1,3.4031957E-2,-3.6170974E-3,-8.036591E-3,-3.7573835E-5,2.889789E-3],"categories":[],"categories_nodes":[],"categories_segments":[],"categories_sizes":[],"default_left":[0,0,0,0,0,0,0],"id":109,"left_children":[1,3,5,-1,-1,-1,-1],"loss_changes":[6.6960154E0,8.294058E-1,3.72318E0,0E0,0E0,0E0,0E0],"parents":[2147483647,0,0,1,1,2,2],"right_children":[2,4,6,-1,-1,-1,-1],"split_conditions":[-1.5912533E0,7.7958E-1,-8.378549E-1,-3.6170974E-3,-8.036591E-3,-3.7573835E-5,2.889789E-3],"split_indices":[1,10,1,0,0,0,0],"split_type":[0,0,0,0,0,0,0],"sum_hessian":[6.522639E2,5.4815533E1,5.9744836E2,4.350456E1,1.1310974E1,4.9201764E2,1.0543072E2],"tree_param":{"num_deleted":"0","num_feature":"12","num_nodes":"7","size_leaf_vector":"1"}},{"base_weights":[-7.599338E-4,-1.9855209E-1,3.4418312E-1,-7.786911E-4,-5.0619533E-3,6.3161794E-3,2.8902323E-3],"categories":[],"categories_nodes":[],"categories_segments":[],"categories_sizes":[],"default_left":[0,0,0,0,0,0,0],"id":110,"left_children":[1,3,5,-1,-1,-1,-1],"loss_changes":[5.217125E1,1.1022329E1,3.859703E0,0E0,0E0,0E0,0E0],"parents":[2147483647,0,0,1,1,2,2],"right_children":[2,4,6,-1,-1,-1,-1],"split_conditions":[-5.6033087E-1,9.5172E-2,-1.061465E0,-7.786911E-4,-5.0619533E-3,6.3161794E-3,2.8902323E-3],"split_indices":[2,0,0,0,0,0,0],"split_type":[0,0,0,0,0,0,0],"sum_hessian":[7.626697E2,4.8499524E2,2.7767444E2,2.5480812E2,2.3018712E2,1.603842E2,1.1729024E2],"tree_param":{"num_deleted":"0","num_feature":"12","num_nodes":"7","size_leaf_vector":"1"}},{"base_weights":[-1.8296385E-3,-2.0091046E-1,2.9376304E-1,-5.068157E-3,-9.153527E-4,7.4097975E-3,2.136514E-3],"categories":[],"categories_nodes":[],"categories_segments":[],"categories_sizes":[],"default_left":[0,0,0,0,0,0,0],"id":111,"left_children":[1,3,5,-1,-1,-1,-1],"loss_changes":[4.9313416E1,1.0646898E1,1.0950964E1,0E0,0E0,0E0,0E0],"parents":[2147483647,0,0,1,1,2,2],"right_children":[2,4,6,-1,-1,-1,-1],"split_conditions":[-1.7716527E-2,-7.572369E-1,-1.8962294E0,-5.068157E-3,-9.153527E-4,7.4097975E-3,2.136514E-3],"split_indices":[0,0,2,0,0,0,0],"split_type":[0,0,0,0,0,0,0],"sum_hessian":[8.3599316E2,4.9974002E2,3.3625317E2,2.3221419E2,2.6752585E2,1.2858641E2,2.0766676E2],"tree_param":{"num_deleted":"0","num_feature":"12","num_nodes":"7","size_leaf_vector":"1"}},{"base_weights":[3.2750783E-3,-3.25866E-1,3.3825006E-2,-3.5846562E-3,-8.015532E-3,-2.0997879E-5,2.9343404E-3],"categories":[],"categories_nodes":[],"categories_segments":[],"categories_sizes":[],"default_left":[0,0,0,0,0,0,0],"id":112,"left_children":[1,3,5,-1,-1,-1,-1],"loss_changes":[6.578072E0,8.3022165E-1,3.6546202E0,0E0,0E0,0E0,0E0],"parents":[2147483647,0,0,1,1,2,2],"right_children":[2,4,6,-1,-1,-1,-1],"split_conditions":[-1.5912533E0,7.7958E-1,-8.317021E-1,-3.5846562E-3,-8.015532E-3,-2.0997879E-5,2.9343404E-3],"split_indices":[1,10,1,0,0,0,0],"split_type":[0,0,0,0,0,0,0],"sum_hessian":[6.520975E2,5.4564095E1,5.975334E2,4.333122E1,1.1232873E1,4.9705267E2,1.00480705E2],"tree_param":{"num_deleted":"0","num_feature":"12","num_nodes":"7","size_leaf_vector":"1"}},{"base_weights":[-7.961757E-4,-1.9691455E-1,3.4018537E-1,-6.854202E-3,-1.6745096E-3,8.382826E-3,4.024182E-3],"categories":[],"categories_nodes":[],"categories_segments":[],"categories_sizes":[],"default_left":[0,0,0,0,0,0,0],"id":113,"left_children":[1,3,5,-1,-1,-1,-1],"loss_changes":[5.1096924E1,1.0894478E1,3.7903252E0,0E0,0E0,0E0,0E0],"parents":[2147483647,0,0,1,1,2,2],"right_children":[2,4,6,-1,-1,-1,-1],"split_conditions":[-5.6033087E-1,-1.8371252E0,-1.2861525E0,-6.854202E-3,-1.6745096E-3,8.382826E-3,4.024182E-3],"split_indices":[2,2,1,0,0,0,0],"split_type":[0,0,0,0,0,0,0],"sum_hessian":[7.620902E2,4.840864E2,2.780038E2,1.0357441E2,3.80512E2,4.952282E1,2.2848099E2],"tree_param":{"num_deleted":"0","num_feature":"12","num_nodes":"7","size_leaf_vector":"1"}},{"base_weights":[-1.9018387E-3,2.4318393E-1,-2.3740716E-1,7.333554E-3,1.6563041E-3,-7.354165E-3,-2.4003475E-3],"categories":[],"categories_nodes":[],"categories_segments":[],"categories_sizes":[],"default_left":[0,0,0,0,0,0,0],"id":114,"left_children":[1,3,5,-1,-1,-1,-1],"loss_changes":[4.8322624E1,1.4134159E1,8.096836E0,0E0,0E0,0E0,0E0],"parents":[2147483647,0,0,1,1,2,2],"right_children":[2,4,6,-1,-1,-1,-1],"split_conditions":[-1.0058922E0,-1.8962294E0,-1.1345798E0,7.333554E-3,1.6563041E-3,-7.354165E-3,-2.4003475E-3],"split_indices":[2,2,1,0,0,0,0],"split_type":[0,0,0,0,0,0,0],"sum_hessian":[8.3520447E2,4.0926147E2,4.25943E2,1.2841809E2,2.8084338E2,8.202099E1,3.43922E2],"tree_param":{"num_deleted":"0","num_feature":"12","num_nodes":"7","size_leaf_vector":"1"}},{"base_weights":[3.413253E-3,-3.236355E-1,3.363017E-2,-3.5527728E-3,-7.9945205E-3,-1.8655348E-5,2.9020123E-3],"categories":[],"categories_nodes":[],"categories_segments":[],"categories_sizes":[],"default_left":[0,0,0,0,0,0,0],"id":115,"left_children":[1,3,5,-1,-1,-1,-1],"loss_changes":[6.4633555E0,8.307953E-1,3.5742056E0,0E0,0E0,0E0,0E0],"parents":[2147483647,0,0,1,1,2,2],"right_children":[2,4,6,-1,-1,-1,-1],"split_conditions":[-1.5912533E0,7.7958E-1,-8.317021E-1,-3.5527728E-3,-7.9945205E-3,-1.8655348E-5,2.9020123E-3],"split_indices":[1,10,1,0,0,0,0],"split_type":[0,0,0,0,0,0,0],"sum_hessian":[6.5192523E2,5.431743E1,5.976078E2,4.3162235E1,1.1155192E1,4.9695734E2,1.0065048E2],"tree_param":{"num_deleted":"0","num_feature":"12","num_nodes":"7","size_leaf_vector":"1"}},{"base_weights":[-8.3710393E-4,-1.9523004E-1,3.3608648E-1,-6.8141054E-3,-1.6605438E-3,2.710178E-3,6.106245E-3],"categories":[],"categories_nodes":[],"categories_segments":[],"categories_sizes":[],"default_left":[0,0,0,0,0,0,0],"id":116,"left_children":[1,3,5,-1,-1,-1,-1],"loss_changes":[5.00057E1,1.0734013E1,3.735548E0,0E0,0E0,0E0,0E0],"parents":[2147483647,0,0,1,1,2,2],"right_children":[2,4,6,-1,-1,-1,-1],"split_conditions":[-5.6033087E-1,-1.8371252E0,-1.6511406E-1,-6.8141054E-3,-1.6605438E-3,2.710178E-3,6.106245E-3],"split_indices":[2,2,2,0,0,0,0],"split_type":[0,0,0,0,0,0,0],"sum_hessian":[7.6149567E2,4.831537E2,2.7834198E2,1.02970764E2,3.8018295E2,1.1073414E2,1.6760783E2],"tree_param":{"num_deleted":"0","num_feature":"12","num_nodes":"7","size_leaf_vector":"1"}},{"base_weights":[-1.976641E-3,-2.9191557E-1,1.9341797E-1,-8.518587E-3,-3.3404708E-3,6.3478276E-3,7.6575263E-4],"categories":[],"categories_nodes":[],"categories_segments":[],"categories_sizes":[],"default_left":[0,0,0,0,0,0,0],"id":117,"left_children":[1,3,5,-1,-1,-1,-1],"loss_changes":[4.7385773E1,5.7287693E0,1.7667145E1,0E0,0E0,0E0,0E0],"parents":[2147483647,0,0,1,1,2,2],"right_children":[2,4,6,-1,-1,-1,-1],"split_conditions":[-4.3759522E-1,-1.6164873E0,-1.681956E0,-8.518587E-3,-3.3404708E-3,6.3478276E-3,7.6575263E-4],"split_indices":[0,0,2,0,0,0,0],"split_type":[0,0,0,0,0,0,0],"sum_hessian":[8.344319E2,3.3574225E2,4.9868964E2,5.0534412E1,2.8520786E2,1.7603615E2,3.226535E2],"tree_param":{"num_deleted":"0","num_feature":"12","num_nodes":"7","size_leaf_vector":"1"}},{"base_weights":[3.551434E-3,-3.2152793E-1,3.3456013E-2,-3.522769E-3,-7.974647E-3,-3.097504E-5,2.8012805E-3],"categories":[],"categories_nodes":[],"categories_segments":[],"categories_sizes":[],"default_left":[0,0,0,0,0,0,0],"id":118,"left_children":[1,3,5,-1,-1,-1,-1],"loss_changes":[6.3564153E0,8.311691E-1,3.4979985E0,0E0,0E0,0E0,0E0],"parents":[2147483647,0,0,1,1,2,2],"right_children":[2,4,6,-1,-1,-1,-1],"split_conditions":[-1.5912533E0,7.7958E-1,-8.378549E-1,-3.522769E-3,-7.974647E-3,-3.097504E-5,2.8012805E-3],"split_indices":[1,10,1,0,0,0,0],"split_type":[0,0,0,0,0,0,0],"sum_hessian":[6.517541E2,5.4083595E1,5.976705E2,4.3002808E1,1.1080786E1,4.917499E2,1.05920586E2],"tree_param":{"num_deleted":"0","num_feature":"12","num_nodes":"7","size_leaf_vector":"1"}},{"base_weights":[-8.752647E-4,-1.9363756E-1,3.3224365E-1,-7.513989E-4,-4.9647624E-3,8.208538E-3,3.925839E-3],"categories":[],"categories_nodes":[],"categories_segments":[],"categories_sizes":[],"default_left":[0,0,0,0,0,0,0],"id":119,"left_children":[1,3,5,-1,-1,-1,-1],"loss_changes":[4.8988293E1,1.0601135E1,3.6685104E0,0E0,0E0,0E0,0E0],"parents":[2147483647,0,0,1,1,2,2],"right_children":[2,4,6,-1,-1,-1,-1],"split_conditions":[-5.6033087E-1,9.5172E-2,-1.2861525E0,-7.513989E-4,-4.9647624E-3,8.208538E-3,3.925839E-3],"split_indices":[2,0,1,0,0,0,0],"split_type":[0,0,0,0,0,0,0],"sum_hessian":[7.6090393E2,4.8225903E2,2.7864487E2,2.5442372E2,2.2783533E2,4.9624012E1,2.2902086E2],"tree_param":{"num_deleted":"0","num_feature":"12","num_nodes":"7","size_leaf_vector":"1"}},{"base_weights":[-2.0523581E-3,-2.8926656E-1,1.9113772E-1,-8.4687825E-3,-3.3076624E-3,7.19605E-3,1.1475364E-3],"categories":[],"categories_nodes":[],"categories_segments":[],"categories_sizes":[],"default_left":[0,0,0,0,0,0,0],"id":120,"left_children":[1,3,5,-1,-1,-1,-1],"loss_changes":[4.636853E1,5.6677628E0,1.7365099E1,0E0,0E0,0E0,0E0],"parents":[2147483647,0,0,1,1,2,2],"right_children":[2,4,6,-1,-1,-1,-1],"split_conditions":[-4.3759522E-1,-1.6164873E0,-1.8962294E0,-8.4687825E-3,-3.3076624E-3,7.19605E-3,1.1475364E-3],"split_indices":[0,0,2,0,0,0,0],"split_type":[0,0,0,0,0,0,0],"sum_hessian":[8.336693E2,3.350523E2,4.98617E2,5.0291588E1,2.847607E2,1.2808786E2,3.7052914E2],"tree_param":{"num_deleted":"0","num_feature":"12","num_nodes":"7","size_leaf_vector":"1"}},{"base_weights":[3.6909743E-3,-3.193916E-1,3.3281155E-2,-3.4922808E-3,-7.954744E-3,-1.4074972E-5,2.8422177E-3],"categories":[],"categories_nodes":[],"categories_segments":[],"categories_sizes":[],"default_left":[0,0,0,0,0,0,0],"id":121,"left_children":[1,3,5,-1,-1,-1,-1],"loss_changes":[6.2493873E0,8.3167696E-1,3.4268906E0,0E0,0E0,0E0,0E0],"parents":[2147483647,0,0,1,1,2,2],"right_children":[2,4,6,-1,-1,-1,-1],"split_conditions":[-1.5912533E0,7.7958E-1,-8.317021E-1,-3.4922808E-3,-7.954744E-3,-1.4074972E-5,2.8422177E-3],"split_indices":[1,10,1,0,0,0,0],"split_type":[0,0,0,0,0,0,0],"sum_hessian":[6.515848E2,5.384796E1,5.977368E2,4.2841843E1,1.1006117E1,4.9677295E2,1.0096385E2],"tree_param":{"num_deleted":"0","num_feature":"12","num_nodes":"7","size_leaf_vector":"1"}},{"base_weights":[-9.137752E-4,-1.9198626E-1,3.283038E-1,-6.7426926E-3,-1.6308544E-3,6.0399007E-3,2.7357114E-3],"categories":[],"categories_nodes":[],"categories_segments":[],"categories_sizes":[],"default_left":[0,0,0,0,0,0,0],"id":122,"left_children":[1,3,5,-1,-1,-1,-1],"loss_changes":[4.7952183E1,1.0470633E1,3.6093025E0,0E0,0E0,0E0,0E0],"parents":[2147483647,0,0,1,1,2,2],"right_children":[2,4,6,-1,-1,-1,-1],"split_conditions":[-5.6033087E-1,-1.8371252E0,-1.061465E0,-6.7426926E-3,-1.6308544E-3,6.0399007E-3,2.7357114E-3],"split_indices":[2,2,0,0,0,0,0],"split_type":[0,0,0,0,0,0,0],"sum_hessian":[7.6030035E2,4.813497E2,2.7895065E2,1.0189102E2,3.7945868E2,1.6114647E2,1.1780417E2],"tree_param":{"num_deleted":"0","num_feature":"12","num_nodes":"7","size_leaf_vector":"1"}},{"base_weights":[-2.129674E-3,-1.9397701E-1,2.8166652E-1,-6.1940216E-3,-1.5807269E-3,7.122949E-3,2.0491697E-3],"categories":[],"categories_nodes":[],"categories_segments":[],"categories_sizes":[],"default_left":[0,0,0,0,0,0,0],"id":123,"left_children":[1,3,5,-1,-1,-1,-1],"loss_changes":[4.5455387E1,9.927315E0,1.01084E1,0E0,0E0,0E0,0E0],"parents":[2147483647,0,0,1,1,2,2],"right_children":[2,4,6,-1,-1,-1,-1],"split_conditions":[-1.7716527E-2,-1.146851E0,-1.8962294E0,-6.1940216E-3,-1.5807269E-3,7.122949E-3,2.0491697E-3],"split_indices":[0,0,2,0,0,0,0],"split_type":[0,0,0,0,0,0,0],"sum_hessian":[8.328744E2,4.9712946E2,3.3574496E2,1.25225525E2,3.7190393E2,1.27898605E2,2.0784634E2],"tree_param":{"num_deleted":"0","num_feature":"12","num_nodes":"7","size_leaf_vector":"1"}},{"base_weights":[3.8356201E-3,-3.1731698E-1,3.312304E-2,-3.462785E-3,-7.935379E-3,-1.130296E-5,2.8112768E-3],"categories":[],"categories_nodes":[],"categories_segments":[],"categories_sizes":[],"default_left":[0,0,0,0,0,0,0],"id":124,"left_children":[1,3,5,-1,-1,-1,-1],"loss_changes":[6.1468973E0,8.320117E-1,3.3507495E0,0E0,0E0,0E0,0E0],"parents":[2147483647,0,0,1,1,2,2],"right_children":[2,4,6,-1,-1,-1,-1],"split_conditions":[-1.5912533E0,7.7958E-1,-8.317021E-1,-3.462785E-3,-7.935379E-3,-1.130296E-5,2.8112768E-3],"split_indices":[1,10,1,0,0,0,0],"split_type":[0,0,0,0,0,0,0],"sum_hessian":[6.514095E2,5.361851E1,5.9779095E2,4.268573E1,1.0932781E1,4.96665E2,1.0112594E2],"tree_param":{"num_deleted":"0","num_feature":"12","num_nodes":"7","size_leaf_vector":"1"}},{"base_weights":[-9.550831E-4,-1.9035117E-1,3.2441577E-1,-7.318952E-4,-4.900572E-3,2.6041286E-3,5.9017246E-3],"categories":[],"categories_nodes":[],"categories_segments":[],"categories_sizes":[],"default_left":[0,0,0,0,0,0,0],"id":125,"left_children":[1,3,5,-1,-1,-1,-1],"loss_changes":[4.6938457E1,1.0335518E1,3.53475E0,0E0,0E0,0E0,0E0],"parents":[2147483647,0,0,1,1,2,2],"right_children":[2,4,6,-1,-1,-1,-1],"split_conditions":[-5.6033087E-1,9.5172E-2,-1.6511406E-1,-7.318952E-4,-4.900572E-3,2.6041286E-3,5.9017246E-3],"split_indices":[2,0,2,0,0,0,0],"split_type":[0,0,0,0,0,0,0],"sum_hessian":[7.5968945E2,4.8044235E2,2.7924713E2,2.5415349E2,2.2628885E2,1.1107035E2,1.6817677E2],"tree_param":{"num_deleted":"0","num_feature":"12","num_nodes":"7","size_leaf_vector":"1"}},{"base_weights":[-2.2015136E-3,2.2386819E-1,-2.3847145E-1,7.056792E-3,1.493643E-3,-8.385011E-3,-2.664181E-3],"categories":[],"categories_nodes":[],"categories_segments":[],"categories_sizes":[],"default_left":[0,0,0,0,0,0,0],"id":126,"left_children":[1,3,5,-1,-1,-1,-1],"loss_changes":[4.4551178E1,